<?xml version="1.0" encoding="US-ASCII"?>
<BIF VERSION="0.3">
    <NETWORK>
        <NAME>2202</NAME>
        <!--Variables-->
        <VARIABLE TYPE="nature">
            <NAME>X1</NAME>
            <OUTCOME>0</OUTCOME>
            <OUTCOME>1</OUTCOME>
        </VARIABLE>
        <VARIABLE TYPE="nature">
            <NAME>X2</NAME>
            <OUTCOME>0</OUTCOME>
            <OUTCOME>1</OUTCOME>
        </VARIABLE>
        <VARIABLE TYPE="nature">
            <NAME>X3</NAME>
            <OUTCOME>0</OUTCOME>
            <OUTCOME>1</OUTCOME>
        </VARIABLE>
        <VARIABLE TYPE="nature">
            <NAME>X4</NAME>
            <OUTCOME>0</OUTCOME>
            <OUTCOME>1</OUTCOME>
        </VARIABLE>
        <VARIABLE TYPE="nature">
            <NAME>X5</NAME>
            <OUTCOME>0</OUTCOME>
            <OUTCOME>1</OUTCOME>
        </VARIABLE>
        <VARIABLE TYPE="nature">
            <NAME>X6</NAME>
            <OUTCOME>0</OUTCOME>
            <OUTCOME>1</OUTCOME>
        </VARIABLE>
        <VARIABLE TYPE="nature">
            <NAME>X7</NAME>
            <OUTCOME>0</OUTCOME>
            <OUTCOME>1</OUTCOME>
        </VARIABLE>
        <VARIABLE TYPE="nature">
            <NAME>X8</NAME>
            <OUTCOME>0</OUTCOME>
            <OUTCOME>1</OUTCOME>
        </VARIABLE>
        <VARIABLE TYPE="nature">
            <NAME>X9</NAME>
            <OUTCOME>0</OUTCOME>
            <OUTCOME>1</OUTCOME>
        </VARIABLE>
        <VARIABLE TYPE="nature">
            <NAME>X10</NAME>
            <OUTCOME>0</OUTCOME>
            <OUTCOME>1</OUTCOME>
        </VARIABLE>
        <VARIABLE TYPE="nature">
            <NAME>C1</NAME>
            <OUTCOME>A</OUTCOME>
            <OUTCOME>B</OUTCOME>
        </VARIABLE>
        <VARIABLE TYPE="nature">
            <NAME>C2</NAME>
            <OUTCOME>A</OUTCOME>
            <OUTCOME>B</OUTCOME>
        </VARIABLE>
        <VARIABLE TYPE="nature">
            <NAME>C3</NAME>
            <OUTCOME>A</OUTCOME>
            <OUTCOME>B</OUTCOME>
        </VARIABLE>
        <!--Conditional probability distributions-->
        <DEFINITION>
            <FOR>X1</FOR>
            <GIVEN>C1</GIVEN>
            <GIVEN>C2</GIVEN>
            <TABLE>0.3275340857218741 0.672465914278126 0.7250951160038576 0.27490488399614244 0.8697111373447893 0.13028886265521067 0.7228423796945393 0.27715762030546065 </TABLE>
        </DEFINITION>
        <DEFINITION>
            <FOR>X2</FOR>
            <GIVEN>C1</GIVEN>
            <GIVEN>X1</GIVEN>
            <GIVEN>X4</GIVEN>
            <TABLE>0.21364843534181546 0.7863515646581846 0.37008723933444493 0.6299127606655551 0.5362837895246689 0.4637162104753311 0.6532713934335846 0.3467286065664154 0.6960835366237639 0.3039164633762362 0.25315767122229677 0.7468423287777033 0.6052627206524996 0.3947372793475003 0.10933299614442088 0.8906670038555791 </TABLE>
        </DEFINITION>
        <DEFINITION>
            <FOR>X3</FOR>
            <GIVEN>C1</GIVEN>
            <GIVEN>X1</GIVEN>
            <TABLE>0.9659077877615269 0.03409221223847317 0.41924200360349545 0.5807579963965046 0.5448773465114785 0.4551226534885216 0.10344794874274707 0.8965520512572529 </TABLE>
        </DEFINITION>
        <DEFINITION>
            <FOR>X4</FOR>
            <GIVEN>C1</GIVEN>
            <TABLE>0.9807380804595399 0.019261919540460068 0.5510059925969246 0.4489940074030753 </TABLE>
        </DEFINITION>
        <DEFINITION>
            <FOR>X5</FOR>
            <GIVEN>C2</GIVEN>
            <GIVEN>C3</GIVEN>
            <GIVEN>X4</GIVEN>
            <GIVEN>X10</GIVEN>
            <TABLE>0.4265501040000611 0.5734498959999389 0.005831446218520059 0.99416855378148 0.03784026562932203 0.962159734370678 0.816293756801186 0.18370624319881396 0.895910805733469 0.10408919426653106 0.7728589234431025 0.22714107655689755 0.644011002384691 0.35598899761530906 0.8097067768352383 0.1902932231647618 0.5336588477838018 0.4663411522161982 0.3188215416983988 0.6811784583016012 0.43469260098899426 0.5653073990110058 0.208148603717821 0.791851396282179 0.45229318289532444 0.5477068171046756 0.4578130060762886 0.5421869939237115 0.863404479787405 0.13659552021259505 0.09355817535909783 0.9064418246409023 </TABLE>
        </DEFINITION>
        <DEFINITION>
            <FOR>X6</FOR>
            <GIVEN>C3</GIVEN>
            <GIVEN>X3</GIVEN>
            <GIVEN>X5</GIVEN>
            <TABLE>0.0502513217861598 0.9497486782138402 0.2475579605390281 0.752442039460972 0.1937722325483155 0.8062277674516845 0.5431403816436124 0.4568596183563876 0.5825176085855287 0.4174823914144713 0.15707560069532117 0.8429243993046788 0.3170959794023896 0.6829040205976105 0.6943009808764931 0.305699019123507 </TABLE>
        </DEFINITION>
        <DEFINITION>
            <FOR>X7</FOR>
            <GIVEN>C2</GIVEN>
            <GIVEN>X6</GIVEN>
            <GIVEN>X8</GIVEN>
            <TABLE>0.9480154813894149 0.05198451861058514 0.09087450419458203 0.909125495805418 0.5914617355083468 0.4085382644916532 0.3149977915989745 0.6850022084010255 0.42915847981855443 0.5708415201814456 0.561057161497793 0.43894283850220694 0.44835110637060477 0.5516488936293953 0.5515269219094048 0.4484730780905952 </TABLE>
        </DEFINITION>
        <DEFINITION>
            <FOR>X8</FOR>
            <GIVEN>C2</GIVEN>
            <GIVEN>C3</GIVEN>
            <GIVEN>X9</GIVEN>
            <GIVEN>X10</GIVEN>
            <TABLE>0.0608662204679613 0.9391337795320387 0.5743552497030964 0.4256447502969037 0.9629431835207399 0.037056816479260075 0.16578737640409702 0.834212623595903 0.1704315280286135 0.8295684719713865 0.08593785679461131 0.9140621432053887 0.897742229221658 0.10225777077834194 0.6444503209827208 0.3555496790172793 0.8670376541828773 0.13296234581712274 0.1373043266228747 0.8626956733771253 0.6753518283828686 0.3246481716171315 0.14551235210141983 0.8544876478985802 0.4912505559523889 0.5087494440476111 0.8565218963543461 0.14347810364565394 0.11178414457607368 0.8882158554239263 0.09751919791537192 0.9024808020846281 </TABLE>
        </DEFINITION>
        <DEFINITION>
            <FOR>X9</FOR>
            <GIVEN>C3</GIVEN>
            <GIVEN>X10</GIVEN>
            <TABLE>0.9108860270800984 0.08911397291990163 0.6916797888100087 0.30832021118999126 0.05231258601358701 0.947687413986413 0.35552735597606444 0.6444726440239356 </TABLE>
        </DEFINITION>
        <DEFINITION>
            <FOR>X10</FOR>
            <GIVEN>C3</GIVEN>
            <TABLE>0.17555543399602236 0.8244445660039775 0.0275311898449998 0.9724688101550002 </TABLE>
        </DEFINITION>
        <DEFINITION>
            <FOR>C1</FOR>
            <TABLE>0.5097984018521774 0.49020159814782266 </TABLE>
        </DEFINITION>
        <DEFINITION>
            <FOR>C2</FOR>
            <GIVEN>C1</GIVEN>
            <GIVEN>C3</GIVEN>
            <TABLE>0.82221805760961 0.17778194239039014 0.6693552623763224 0.33064473762367763 0.5626763031732613 0.4373236968267386 0.2690955246333647 0.7309044753666353 </TABLE>
        </DEFINITION>
        <DEFINITION>
            <FOR>C3</FOR>
            <GIVEN>C1</GIVEN>
            <TABLE>0.09595357871644988 0.9040464212835502 0.6890335693584442 0.3109664306415559 </TABLE>
        </DEFINITION>
    </NETWORK>
</BIF>
