<?xml version="1.0" encoding="US-ASCII"?>
<BIF VERSION="0.3">
    <NETWORK>
        <NAME>2203</NAME>
        <!--Variables-->
        <VARIABLE TYPE="nature">
            <NAME>X1</NAME>
            <OUTCOME>0</OUTCOME>
            <OUTCOME>1</OUTCOME>
            <OUTCOME>2</OUTCOME>
        </VARIABLE>
        <VARIABLE TYPE="nature">
            <NAME>X2</NAME>
            <OUTCOME>0</OUTCOME>
            <OUTCOME>1</OUTCOME>
            <OUTCOME>2</OUTCOME>
        </VARIABLE>
        <VARIABLE TYPE="nature">
            <NAME>X3</NAME>
            <OUTCOME>0</OUTCOME>
            <OUTCOME>1</OUTCOME>
            <OUTCOME>2</OUTCOME>
        </VARIABLE>
        <VARIABLE TYPE="nature">
            <NAME>X4</NAME>
            <OUTCOME>0</OUTCOME>
            <OUTCOME>1</OUTCOME>
            <OUTCOME>2</OUTCOME>
        </VARIABLE>
        <VARIABLE TYPE="nature">
            <NAME>X5</NAME>
            <OUTCOME>0</OUTCOME>
            <OUTCOME>1</OUTCOME>
            <OUTCOME>2</OUTCOME>
        </VARIABLE>
        <VARIABLE TYPE="nature">
            <NAME>C1</NAME>
            <OUTCOME>A</OUTCOME>
            <OUTCOME>B</OUTCOME>
            <OUTCOME>C</OUTCOME>
        </VARIABLE>
        <VARIABLE TYPE="nature">
            <NAME>C2</NAME>
            <OUTCOME>A</OUTCOME>
            <OUTCOME>B</OUTCOME>
            <OUTCOME>C</OUTCOME>
        </VARIABLE>
        <!--Conditional probability distributions-->
        <DEFINITION>
            <FOR>X1</FOR>
            <GIVEN>C1</GIVEN>
            <GIVEN>C2</GIVEN>
            <GIVEN>X2</GIVEN>
            <GIVEN>X3</GIVEN>
            <TABLE>0.5623406926271122 0.06577319976191393 0.37188610761097385 0.664666394734093 0.26620412467615573 0.0691294805897513 0.15224635342777804 0.25571440716942406 0.592039239402798 0.08674526276700242 0.3204223265769526 0.592832410656045 0.26403297837071155 0.4198413106899095 0.316125710939379 0.8485027064856311 0.0791749438641396 0.07232234965022936 0.2234382739372045 0.3198325110803117 0.4567292149824838 0.31593999911457776 0.1945555000605738 0.4895045008248484 0.6003738398280435 0.2937025463215587 0.1059236138503979 0.20455699262226773 0.6006366801160035 0.1948063272617288 0.06617752670683141 0.0027945447835256033 0.931027928509643 0.14995854527785446 0.1497383785008489 0.7003030762212966 0.14151828424417645 0.6279064890038585 0.23057522675196507 0.16962280831240392 0.33794232537103636 0.4924348663165597 0.018817484163721282 0.030716850301835352 0.9504656655344433 0.77467075033139 0.18941390794089044 0.03591534172771957 0.19430315216644317 0.7226453487131388 0.08305149912041812 0.07436940867052368 0.3599442492309387 0.5656863420985376 0.4278896762930034 0.4608045297545792 0.11130579395241746 0.055256221258423034 0.8610529476604243 0.08369083108115277 0.09034664840663821 0.025694620088693755 0.883958731504668 0.7379442514779229 0.20078176888002822 0.061273979642048906 0.8229187505892375 0.13895113117281066 0.03813011823795187 0.8785264549361889 0.10267901821826375 0.018794526845547416 0.056452240979957984 0.6389649232326052 0.3045828357874367 0.2521183573378844 0.6104126292239479 0.13746901343816786 0.06066106910966466 0.8091396750270956 0.13019925586323974 0.35533383304203703 0.05363170921723601 0.591034457740727 0.45492861630392895 0.45208840127020516 0.09298298242586583 0.4411566535522792 0.015778252606294146 0.5430650938414266 0.3661814742060464 0.5854202447372664 0.04839828105668732 0.25122598878891295 0.6995920528467607 0.04918195836432629 0.2807189133994331 0.6225513966068371 0.09672968999372994 0.2628611810589871 0.38842691736814094 0.3487119015728719 0.20291993414982468 0.6866538247177824 0.11042624113239294 0.4861568666325594 0.41726416554471296 0.09657896782272767 0.08251491586354154 0.48502902699743755 0.43245605713902086 0.259973011371359 0.19738417251911936 0.5426428161095217 0.45361427207411925 0.5291739142643783 0.01721181366150247 0.08450331079706998 0.2010502737695673 0.7144464154333627 0.3068122473093533 0.5810066890245396 0.11218106366610715 0.1025892117680673 0.6138287138245173 0.28358207440741534 0.4090184487147512 0.3481142373157578 0.24286731396949107 0.25553170565157296 0.736462516802366 0.008005777546061084 0.2696666870497665 0.47532607860622594 0.25500723434400757 0.2757970430226667 0.5084504837184939 0.2157524732588394 0.8168525912767804 0.1682067922161434 0.014940616507076105 0.029366614033724838 0.7960322293290103 0.17460115663726491 0.5247421160020745 0.27208601165628366 0.20317187234164197 0.33578887105414607 0.3198253290308984 0.3443857999149556 0.47047927800274864 0.0994241919399614 0.43009653005729004 0.6754393633766014 0.05779916932157085 0.2667614673018278 0.32640356367943973 0.5906348582920161 0.08296157802854431 0.3705642647965663 0.3148377645066498 0.314597970696784 0.5264225130318722 0.09613408978711044 0.3774433971810174 0.478607204590197 0.1370024868188871 0.3843903085909159 0.5625609375611217 0.2533941668466679 0.18404489559221052 0.6430047464219261 0.1039635505279612 0.2530317030501128 0.4832007182121355 0.1409557781155023 0.37584350367236224 0.46268602243763446 0.14169146021466456 0.3956225173477011 0.24167294492702032 0.026246593397675256 0.7320804616753044 0.4657783851440294 0.03239947908332456 0.5018221357726461 0.3920731223475166 0.40683661355130446 0.20109026410117897 0.013454783283208998 0.11148283032509808 0.8750623863916929 0.17403195526875137 0.6205841491640044 0.2053838955672442 0.06810592298676425 0.6318460574891437 0.30004801952409205 0.20137037610062208 0.4637270113773523 0.3349026125220257 0.13668264077804088 0.0843645202530985 0.7789528389688606 0.7306910292980259 0.25740518969158155 0.011903781010392479 0.01837066624546589 0.2283491101939281 0.7532802235606061 0.12391832054272599 0.5561154761162861 0.31996620334098796 0.34054327312177 0.3697093138508428 0.28974741302738716 0.0011302799136374989 0.016783607680866622 0.9820861124054959 0.8334072255731492 0.046990839555785494 0.11960193487106532 0.4246641357148271 0.2639251537275819 0.31141071055759095 0.585693671798848 0.3567896123937372 0.05751671580741473 0.4543941963039045 0.32286538652437263 0.222740417171723 0.280446006723638 0.22629876753153427 0.4932552257448278 0.16960962923315798 0.3226633972789763 0.5077269734878657 0.5122148237997666 0.37463649239082714 0.11314868380940629 0.25025600207551335 0.29361280172476345 0.45613119619972314 </TABLE>
        </DEFINITION>
        <DEFINITION>
            <FOR>X2</FOR>
            <GIVEN>C1</GIVEN>
            <GIVEN>C2</GIVEN>
            <GIVEN>X3</GIVEN>
            <TABLE>0.09260004172694361 0.505711784909261 0.40168817336379536 0.6728119415073857 0.11208132607123829 0.21510673242137607 0.2932438931812323 0.5580630046118925 0.1486931022068752 0.4043080137764763 0.507891173120315 0.0878008131032088 0.3710318179266852 0.033170974386593804 0.595797207686721 0.7702649935528159 0.13701748509045528 0.09271752135672891 0.3696400963154784 0.4427054989944976 0.18765440469002403 0.2580333421095004 0.1091882225356757 0.6327784353548239 0.41642205082825084 0.20368565465270622 0.3798922945190429 0.12231621116376447 0.3343776224140755 0.5433061664221601 0.31152886561923987 0.03971108913702573 0.6487600452437344 0.08756809234484993 0.585833621948871 0.32659828570627913 0.024219684401554503 0.07358495569379929 0.9021953599046462 0.04153411800647243 0.6640872052192435 0.2943786767742842 0.03551901393367837 0.15022413190148173 0.81425685416484 0.21367501127918925 0.08516918466516836 0.7011558040556424 0.5615073751276897 0.2726555463402905 0.16583707853201984 0.43598436150864833 0.13090491791173997 0.4331107205796117 0.09475018190487185 0.47607408993997097 0.4291757281551572 0.15874382149856348 0.021777905021660916 0.8194782734797756 0.4743553768164558 0.18046946883462284 0.34517515434892143 0.30965961635639494 0.4782941230979552 0.21204626054564993 0.4006019112524734 0.0487763597354864 0.5506217290120402 0.009866870767624734 0.045792776463401096 0.9443403527689742 0.30752311545825667 0.1835389843619739 0.5089379001797695 0.11261789971645379 0.025725724078829563 0.8616563762047166 0.6124779021695023 0.09350688884763132 0.2940152089828664 </TABLE>
        </DEFINITION>
        <DEFINITION>
            <FOR>X3</FOR>
            <GIVEN>C1</GIVEN>
            <GIVEN>C2</GIVEN>
            <TABLE>0.00397071491772538 0.8427126656048701 0.15331661947740446 0.059512474564429416 0.817367248814305 0.12312027662126555 0.1502948123663116 0.5684177189021509 0.28128746873153754 0.6057957862326752 0.1333303985739225 0.26087381519340236 0.40712492698884917 0.21505464042034184 0.377820432590809 0.09460801568868608 0.3505890864987348 0.5548028978125792 0.3909516771525806 0.6069876925248495 0.002060630322570006 0.0019669123423035288 0.8388177274907586 0.15921536016693802 0.01695142682021846 0.39929177141055483 0.5837568017692267 </TABLE>
        </DEFINITION>
        <DEFINITION>
            <FOR>X4</FOR>
            <GIVEN>C1</GIVEN>
            <GIVEN>C2</GIVEN>
            <GIVEN>X3</GIVEN>
            <TABLE>0.004252330012954705 0.9127876363150504 0.08296003367199493 0.1399194872510062 0.3690507873124964 0.4910297254364973 0.43405193297998457 0.36504145220715895 0.20090661481285643 0.698570401658245 0.051726615402288185 0.24970298293946677 0.5607777153330179 0.12497451466444619 0.3142477700025359 0.7150765617822332 0.08904449153898042 0.19587894667878641 0.14269370321300623 0.44845442480470876 0.40885187198228495 0.49661276413183436 0.09432427564837385 0.40906296021979177 0.40892908329957556 0.500607811482713 0.09046310521771153 0.24379180656358415 0.5217911515224507 0.23441704191396523 0.33114074876425403 0.5738929396161786 0.09496631161956746 0.8362307143554317 0.07739106595130658 0.08637821969326179 0.0788086497437316 0.037276532511751705 0.8839148177445167 0.2179069098427115 0.25157801753730613 0.5305150726199824 0.6229748365051412 0.16582686161348056 0.21119830188137817 0.12902540701941417 0.7709526522677673 0.10002194071281839 0.7355173735749019 0.0179381158223268 0.2465445106027713 0.5446236450690445 0.04758216144167086 0.4077941934892847 0.8007838834900267 0.14544805151146883 0.053768064998504485 0.9161721375817999 0.05140759433668873 0.032420268081511425 0.2375567300437595 0.6068677185507866 0.15557555140545404 0.2066740776730271 0.689199219249749 0.10412670307722394 0.16854660159406387 0.6588159286178884 0.17263746978804767 0.8769629868355271 0.10882990482994725 0.01420710833452566 0.5873513996037244 0.3997883106373921 0.012860289758883576 0.08174813585522339 0.11671819472932884 0.8015336694154478 0.4178875115066105 0.05852918236577738 0.5235833061276122 </TABLE>
        </DEFINITION>
        <DEFINITION>
            <FOR>X5</FOR>
            <GIVEN>C1</GIVEN>
            <GIVEN>C2</GIVEN>
            <GIVEN>X3</GIVEN>
            <GIVEN>X4</GIVEN>
            <TABLE>0.3813872041746008 0.42548456039188554 0.1931282354335137 0.11169713597193849 0.7992941507812173 0.08900871324684423 0.256012524649939 0.7308347683127161 0.013152707037344901 0.7567508460486829 0.09582205629227203 0.14742709765904505 0.5097038718007193 0.15900060718909906 0.33129552101018167 0.7225479920547758 0.010705646208370239 0.266746361736854 0.6900875978679619 0.09798074238233491 0.2119316597497032 0.2610154130035536 0.2300339209610663 0.5089506660353802 0.5770842802813648 0.0015362147736823115 0.42137950494495285 0.6157580907691712 0.24346156291211926 0.14078034631870953 0.3776428687796693 0.1292297157738722 0.49312741544645855 0.4308366846066383 0.20634192386681743 0.36282139152654425 0.008769405321629828 0.838946674962097 0.1522839197162732 0.35870944495774243 0.23483253234287849 0.4064580226993791 0.6291326264577325 0.16239555529414965 0.20847181824811784 0.221490868973771 0.7645410992288955 0.013968031797333575 0.8064719464384761 0.0640152891245271 0.12951276443699689 0.7264511339364336 0.22558448752557686 0.047964378537989585 0.03580960293587999 0.4809493553531992 0.4832410417109207 0.29784336138821216 0.1922978276941411 0.5098588109176467 0.3371029127241703 0.048371482281000314 0.6145256049948293 0.1808175128828953 0.38842320193593355 0.43075928518117107 0.12010618326691105 0.43363426828468726 0.4462595484484017 0.5582742374069584 0.01280895610919202 0.42891680648384967 0.1172167923655262 0.12624354918171585 0.756539658452758 0.4753660764293909 0.09717742274750509 0.4274565008231041 0.18460948455760667 0.18027916629082302 0.6351113491515703 0.45802081646102366 0.2593054947814094 0.282673688757567 0.23497523813060653 0.02348043128867324 0.7415443305807203 0.6711398702875504 0.029378770773889038 0.29948135893856065 0.3474371547146848 0.5559938813252332 0.09656896396008201 0.42019029253928064 0.1869709334033561 0.39283877405736317 0.08969654378656512 0.5253205181027157 0.3849829381107192 0.03013121811457261 0.4615125948355847 0.5083561870498428 0.009577152265130371 0.4256499257899786 0.564772921944891 0.019951402752951073 0.624698345582695 0.355350251664354 0.05744571356307325 0.27339890072482304 0.6691553857121038 0.28567466271834147 0.09659923910909386 0.6177260981725647 0.6405045179810448 0.226223865898956 0.1332716161199993 0.0029426183366510553 0.32564371425629307 0.6714136674070559 0.6526052300531978 0.054175987741764575 0.29321878220503755 0.7712806502714339 0.12322120159138816 0.10549814813717802 0.03398830672174541 0.8746834964657948 0.09132819681245984 0.6219510927460786 0.1295886473094887 0.2484602599444327 0.5817156723129888 0.0576755043569082 0.36060882333010297 0.5128468189842531 0.23841073012197883 0.2487424508937681 0.09476212609911687 0.16899469727559213 0.7362431766252909 0.6515976869236105 0.22001893748157336 0.12838337559481622 0.12317732267347177 0.23788136586881287 0.6389413114577154 0.12769428097252583 0.25849905753890123 0.613806661488573 0.04912515821839885 0.15208408986150537 0.7987907519200959 0.9655847774901528 0.002623057754544458 0.031792164755302735 0.5594912738033245 0.12893351822032037 0.3115752079763551 0.5556761795964014 0.2146748204933511 0.2296489999102476 0.8809110928760877 0.06439206279701991 0.05469684432689233 0.5323055806965333 0.31988398641276794 0.14781043289069873 0.16181526853720593 0.4597025722273418 0.37848215923545225 0.15845901677687257 0.6572028237347954 0.18433815948833202 0.19803068094838078 0.753438362140078 0.04853095691154129 0.27782728756082054 0.34253975780017737 0.37963295463900204 0.6670236367468761 0.0826064699115672 0.2503698933415567 0.4072394748163986 0.09900368462199098 0.4937568405616104 0.1366432330265663 0.3844852061546693 0.4788715608187644 0.6240843878189354 0.02117275025036527 0.3547428619306994 0.30848936375780034 5.490715671077379E-4 0.690961564675092 0.48635818113867724 0.167801523317644 0.3458402955436787 0.6003505931759765 0.3914140152054876 0.008235391618535924 0.3171503964318781 0.25300235352809747 0.42984725004002444 0.604014505737064 0.17998174324372632 0.21600375101920982 0.3249016659903473 0.36970958085073996 0.30538875315891273 0.1757803216897757 0.6110481258827629 0.2131715524274613 0.7092961335911567 0.030629506116449653 0.26007436029239367 0.0764082459197796 0.27670280432302236 0.646888949757198 0.16180483406121013 0.8103647375076746 0.027830428431115346 0.42932803365573874 0.22427129576812815 0.346400670576133 0.39918695958370093 0.447748138650709 0.15306490176559 0.2377719699898045 0.13691078767512913 0.6253172423350665 0.3747706435819663 0.056143403630205466 0.5690859527878281 0.02962141932259077 0.0453402969232196 0.9250382837541896 0.3126626002696931 0.6471219967336074 0.0402154029966996 0.2620284273204894 0.42334413639252216 0.31462743628698836 </TABLE>
        </DEFINITION>
        <DEFINITION>
            <FOR>C1</FOR>
            <GIVEN>C2</GIVEN>
            <TABLE>0.5549363966991637 0.3437938766238064 0.1012697266770299 0.11450900789007981 0.25615811760972024 0.6293328745002 0.6469004494262978 0.20245513063744533 0.1506444199362569 </TABLE>
        </DEFINITION>
        <DEFINITION>
            <FOR>C2</FOR>
            <TABLE>0.5678844900045533 0.2428608774294203 0.1892546325660264 </TABLE>
        </DEFINITION>
    </NETWORK>
</BIF>
