<?xml version="1.0" encoding="US-ASCII"?>
<BIF VERSION="0.3">
    <NETWORK>
        <NAME>2304</NAME>
        <!--Variables-->
        <VARIABLE TYPE="nature">
            <NAME>X1</NAME>
            <OUTCOME>0</OUTCOME>
            <OUTCOME>1</OUTCOME>
        </VARIABLE>
        <VARIABLE TYPE="nature">
            <NAME>X2</NAME>
            <OUTCOME>0</OUTCOME>
            <OUTCOME>1</OUTCOME>
        </VARIABLE>
        <VARIABLE TYPE="nature">
            <NAME>X3</NAME>
            <OUTCOME>0</OUTCOME>
            <OUTCOME>1</OUTCOME>
        </VARIABLE>
        <VARIABLE TYPE="nature">
            <NAME>X4</NAME>
            <OUTCOME>0</OUTCOME>
            <OUTCOME>1</OUTCOME>
        </VARIABLE>
        <VARIABLE TYPE="nature">
            <NAME>X5</NAME>
            <OUTCOME>0</OUTCOME>
            <OUTCOME>1</OUTCOME>
        </VARIABLE>
        <VARIABLE TYPE="nature">
            <NAME>X6</NAME>
            <OUTCOME>0</OUTCOME>
            <OUTCOME>1</OUTCOME>
        </VARIABLE>
        <VARIABLE TYPE="nature">
            <NAME>X7</NAME>
            <OUTCOME>0</OUTCOME>
            <OUTCOME>1</OUTCOME>
        </VARIABLE>
        <VARIABLE TYPE="nature">
            <NAME>X8</NAME>
            <OUTCOME>0</OUTCOME>
            <OUTCOME>1</OUTCOME>
        </VARIABLE>
        <VARIABLE TYPE="nature">
            <NAME>X9</NAME>
            <OUTCOME>0</OUTCOME>
            <OUTCOME>1</OUTCOME>
        </VARIABLE>
        <VARIABLE TYPE="nature">
            <NAME>X10</NAME>
            <OUTCOME>0</OUTCOME>
            <OUTCOME>1</OUTCOME>
        </VARIABLE>
        <VARIABLE TYPE="nature">
            <NAME>C1</NAME>
            <OUTCOME>A</OUTCOME>
            <OUTCOME>B</OUTCOME>
        </VARIABLE>
        <VARIABLE TYPE="nature">
            <NAME>C2</NAME>
            <OUTCOME>A</OUTCOME>
            <OUTCOME>B</OUTCOME>
        </VARIABLE>
        <VARIABLE TYPE="nature">
            <NAME>C3</NAME>
            <OUTCOME>A</OUTCOME>
            <OUTCOME>B</OUTCOME>
        </VARIABLE>
        <VARIABLE TYPE="nature">
            <NAME>C4</NAME>
            <OUTCOME>A</OUTCOME>
            <OUTCOME>B</OUTCOME>
        </VARIABLE>
        <!--Conditional probability distributions-->
        <DEFINITION>
            <FOR>X1</FOR>
            <GIVEN>C2</GIVEN>
            <TABLE>0.9402652281883163 0.059734771811683816 0.27934490921678473 0.7206550907832153 </TABLE>
        </DEFINITION>
        <DEFINITION>
            <FOR>X2</FOR>
            <GIVEN>X1</GIVEN>
            <GIVEN>X3</GIVEN>
            <GIVEN>X4</GIVEN>
            <TABLE>0.13078658838345814 0.8692134116165419 0.21569467483228652 0.7843053251677136 0.845179232426352 0.15482076757364804 0.304856194942738 0.6951438050572619 0.676210190601539 0.323789809398461 0.1039247831122641 0.896075216887736 0.19888558288897526 0.8011144171110248 0.182852272462621 0.817147727537379 </TABLE>
        </DEFINITION>
        <DEFINITION>
            <FOR>X3</FOR>
            <GIVEN>C2</GIVEN>
            <GIVEN>C3</GIVEN>
            <TABLE>0.3393701958307076 0.6606298041692924 0.8847242633779582 0.11527573662204187 0.17366957970173352 0.8263304202982664 0.5172667053472303 0.48273329465276965 </TABLE>
        </DEFINITION>
        <DEFINITION>
            <FOR>X4</FOR>
            <GIVEN>C3</GIVEN>
            <TABLE>0.29276511353901563 0.7072348864609843 0.44846100454896615 0.5515389954510339 </TABLE>
        </DEFINITION>
        <DEFINITION>
            <FOR>X5</FOR>
            <GIVEN>C2</GIVEN>
            <GIVEN>C3</GIVEN>
            <GIVEN>X1</GIVEN>
            <GIVEN>X6</GIVEN>
            <GIVEN>X7</GIVEN>
            <TABLE>0.2265575300096528 0.7734424699903473 0.9565625204740869 0.043437479525913175 0.4567368383367587 0.5432631616632413 0.7967206751120715 0.2032793248879286 0.2761093893166716 0.7238906106833284 0.22098209050336165 0.7790179094966383 0.12820597576586618 0.8717940242341339 0.830605443333244 0.1693945566667559 0.5047876977786473 0.49521230222135265 0.9218966227011975 0.07810337729880241 0.7206363216622255 0.27936367833777453 0.09893035412684004 0.90106964587316 0.07288384140347226 0.9271161585965277 0.7228360386086926 0.2771639613913074 0.28225115988087734 0.7177488401191227 0.44583544793149177 0.5541645520685082 0.0684493566970324 0.9315506433029676 0.17542126410957454 0.8245787358904254 0.9343099213446313 0.06569007865536873 0.9349510782819872 0.06504892171801283 0.4069267778769296 0.5930732221230705 0.6531265485046912 0.34687345149530885 0.1061249657489157 0.8938750342510843 0.41447809217082493 0.585521907829175 0.2937273072592456 0.7062726927407544 0.1360734595695865 0.8639265404304135 0.9162440821618427 0.08375591783815722 0.4116952285964946 0.5883047714035053 0.6579040647936428 0.34209593520635717 0.2938728862481978 0.7061271137518021 0.9296266557619745 0.0703733442380255 0.968672391595917 0.031327608404082975 </TABLE>
        </DEFINITION>
        <DEFINITION>
            <FOR>X6</FOR>
            <GIVEN>C4</GIVEN>
            <TABLE>0.12877651743119306 0.8712234825688069 0.8373086289140643 0.1626913710859357 </TABLE>
        </DEFINITION>
        <DEFINITION>
            <FOR>X7</FOR>
            <GIVEN>C4</GIVEN>
            <TABLE>0.32304599824460273 0.6769540017553972 0.2811794198510928 0.7188205801489073 </TABLE>
        </DEFINITION>
        <DEFINITION>
            <FOR>X8</FOR>
            <GIVEN>C3</GIVEN>
            <GIVEN>X6</GIVEN>
            <GIVEN>X7</GIVEN>
            <GIVEN>X9</GIVEN>
            <TABLE>0.23175878613849377 0.7682412138615062 0.7236649055506958 0.2763350944493042 0.9867487118151066 0.013251288184893417 0.9315776083719336 0.0684223916280664 0.11200416971470789 0.8879958302852922 0.3896901843676433 0.6103098156323568 0.887774152261898 0.11222584773810199 0.9453516663060074 0.05464833369399263 0.12567123392166935 0.8743287660783307 0.7791067729226285 0.2208932270773715 0.6015866077450011 0.398413392254999 0.4921326523197156 0.5078673476802845 0.3172652404574121 0.6827347595425879 0.7608827139103097 0.2391172860896903 0.034394047361717 0.965605952638283 0.1840472363079776 0.8159527636920224 </TABLE>
        </DEFINITION>
        <DEFINITION>
            <FOR>X9</FOR>
            <TABLE>0.9626531058653952 0.037346894134604826 </TABLE>
        </DEFINITION>
        <DEFINITION>
            <FOR>X10</FOR>
            <GIVEN>C3</GIVEN>
            <GIVEN>C4</GIVEN>
            <GIVEN>X9</GIVEN>
            <TABLE>0.9881402717595594 0.011859728240440558 0.006171932619192221 0.9938280673808078 0.7688545927064628 0.23114540729353716 0.6956698528519439 0.30433014714805606 0.19505911301549694 0.8049408869845032 0.886903977495393 0.11309602250460704 0.505864461469436 0.494135538530564 0.7844074367242336 0.21559256327576645 </TABLE>
        </DEFINITION>
        <DEFINITION>
            <FOR>C1</FOR>
            <TABLE>0.9984625460499176 0.0015374539500823724 </TABLE>
        </DEFINITION>
        <DEFINITION>
            <FOR>C2</FOR>
            <GIVEN>C1</GIVEN>
            <GIVEN>C3</GIVEN>
            <TABLE>0.06347867378543774 0.9365213262145623 0.6924781622485816 0.3075218377514184 0.74837008221617 0.25162991778383 0.9736716588071768 0.026328341192823283 </TABLE>
        </DEFINITION>
        <DEFINITION>
            <FOR>C3</FOR>
            <GIVEN>C1</GIVEN>
            <TABLE>0.7482851760514724 0.25171482394852757 0.2200285667699972 0.7799714332300028 </TABLE>
        </DEFINITION>
        <DEFINITION>
            <FOR>C4</FOR>
            <GIVEN>C1</GIVEN>
            <GIVEN>C3</GIVEN>
            <TABLE>0.5680241933467678 0.4319758066532322 0.9021254930035723 0.09787450699642769 0.019919435271688046 0.980080564728312 0.5608152366693591 0.43918476333064105 </TABLE>
        </DEFINITION>
    </NETWORK>
</BIF>
