<?xml version="1.0" encoding="US-ASCII"?>
<BIF VERSION="0.3">
    <NETWORK>
        <NAME>2305</NAME>
        <!--Variables-->
        <VARIABLE TYPE="nature">
            <NAME>X1</NAME>
            <OUTCOME>0</OUTCOME>
            <OUTCOME>1</OUTCOME>
            <OUTCOME>2</OUTCOME>
        </VARIABLE>
        <VARIABLE TYPE="nature">
            <NAME>X2</NAME>
            <OUTCOME>0</OUTCOME>
            <OUTCOME>1</OUTCOME>
            <OUTCOME>2</OUTCOME>
        </VARIABLE>
        <VARIABLE TYPE="nature">
            <NAME>X3</NAME>
            <OUTCOME>0</OUTCOME>
            <OUTCOME>1</OUTCOME>
            <OUTCOME>2</OUTCOME>
        </VARIABLE>
        <VARIABLE TYPE="nature">
            <NAME>X4</NAME>
            <OUTCOME>0</OUTCOME>
            <OUTCOME>1</OUTCOME>
            <OUTCOME>2</OUTCOME>
        </VARIABLE>
        <VARIABLE TYPE="nature">
            <NAME>X5</NAME>
            <OUTCOME>0</OUTCOME>
            <OUTCOME>1</OUTCOME>
            <OUTCOME>2</OUTCOME>
        </VARIABLE>
        <VARIABLE TYPE="nature">
            <NAME>C1</NAME>
            <OUTCOME>A</OUTCOME>
            <OUTCOME>B</OUTCOME>
            <OUTCOME>C</OUTCOME>
        </VARIABLE>
        <VARIABLE TYPE="nature">
            <NAME>C2</NAME>
            <OUTCOME>A</OUTCOME>
            <OUTCOME>B</OUTCOME>
            <OUTCOME>C</OUTCOME>
        </VARIABLE>
        <!--Conditional probability distributions-->
        <DEFINITION>
            <FOR>X1</FOR>
            <GIVEN>C1</GIVEN>
            <GIVEN>X2</GIVEN>
            <GIVEN>X3</GIVEN>
            <GIVEN>X4</GIVEN>
            <TABLE>0.08045909691174448 0.918655525996335 8.85377091920521E-4 0.07131393098720847 0.8728921460239925 0.055793922988799045 0.35326913162995977 0.29091546967491977 0.35581539869512047 0.3775099445421625 0.5018095077767176 0.12068054768111994 0.23011601879599208 0.42571614553495085 0.34416783566905707 0.28519213558825296 0.056229483966380146 0.658578380445367 0.9078227645085392 0.010540559653496106 0.0816366758379647 0.422984018973495 0.20235606495761793 0.3746599160688871 0.21432507935832004 0.2081176887078592 0.5775572319338208 0.44188067905098416 0.5528505407313588 0.005268780217657073 0.821728522311498 0.062559349296521 0.11571212839198111 0.12009408360833626 0.653109360208978 0.22679655618268565 0.3707867921646722 0.25833963550063194 0.3708735723346959 0.11839125979478833 0.6555016464711724 0.22610709373403934 0.25568796162977764 0.11010926416298696 0.6342027742072354 0.07920142243631101 0.5097724340876334 0.4110261434760556 0.837755038183677 0.13171525442043755 0.03052970739588551 0.08596839812745957 0.08692399386750373 0.8271076080050367 0.6550961629281988 0.2490314999130945 0.09587233715870673 0.09507890360862672 0.5579647257345851 0.34695637065678814 0.061009520797350905 0.6331812664765926 0.3058092127260566 0.2437999084384784 0.48354249190628446 0.2726575996552371 0.2662327265813571 0.47086479359497213 0.2629024798236708 0.1520409521081334 0.07814684554686034 0.7698122023450062 0.06828948431246838 0.2965388267070265 0.6351716889805051 0.754913876149821 0.04930059273996444 0.19578553111021452 0.29056971162730094 0.432347465117787 0.27708282325491207 0.25576899480250476 0.5212038442686607 0.2230271609288346 0.623631587504905 0.08606778627006732 0.2903006262250278 0.40272969245500806 0.48842308684002544 0.10884722070496655 0.8900132645117695 0.07431065838541 0.03567607710282047 0.042904641602420725 0.635580058541919 0.32151529985566035 0.1694296320601912 0.0788266261613453 0.7517437417784636 0.24249129987639825 0.029933179537352552 0.7275755205862492 0.8643260639630914 0.13168075021708836 0.003993185819820227 0.009522091067093001 0.9416342473407758 0.04884366159213122 0.6717436003081874 0.07922572361869767 0.24903067607311502 0.21365095423482314 0.6840923261867121 0.10225671957846481 0.09187059453346805 0.10251655862415704 0.8056128468423749 0.4168793238192106 0.12073890374770996 0.46238177243307954 0.9693907240830555 0.022661935851568654 0.00794734006537591 0.009690419238736085 0.38172221554056013 0.6085873652207038 0.16093484654097084 0.2710802212609414 0.5679849321980878 0.4272515878587682 0.11420128302293692 0.4585471291182949 0.4346848712091583 0.4884146802305661 0.07690044856027563 0.33079041491271444 0.22829557075184306 0.44091401433544253 0.4227385477204578 0.3998889529333007 0.1773724993462415 0.10704850535758069 0.7982123786767276 0.09473911596569173 0.6515595274433658 0.1332651304233635 0.21517534213327089 0.24148245499297313 0.7551627115871943 0.003354833419832682 0.5437651483327214 0.018082737038222822 0.43815211462905584 0.3717701189735872 0.13145267067830507 0.4967772103481078 0.3861749126661937 0.1861097103709337 0.42771537696287265 0.14025311363142867 0.7279315635587346 0.13181532280983677 0.1898434249395841 0.5503755911989747 0.25978098386144116 0.49509360003900144 0.12398514172661934 0.3809212582343792 0.022613936087512578 0.5437895700676486 0.4335964938448389 0.8850014408460258 0.034892727715639726 0.08010583143833452 0.2280366944964038 0.41598832996195495 0.3559749755416413 0.388546413788352 0.13827130623637454 0.47318227997527357 0.5275067288180687 0.05496521707921355 0.4175280541027178 0.31725977544258666 0.4627417802084335 0.21999844434897992 0.4586666245086465 0.2932579615754862 0.24807541391586727 0.3750958489953695 0.503809953743819 0.1210941972608116 0.3118005418362812 0.04324998964951687 0.6449494685142019 0.15004838551785377 0.04535532320008055 0.8045962912820657 0.718751931192588 0.19502918090857208 0.08621888789883997 0.6875115823071088 0.2776434618891513 0.03484495580373988 0.4707065942883144 0.1374995886064384 0.39179381710524713 0.024419373213010437 0.5163735217107276 0.459207105076262 0.1301723369734588 0.6603587580812265 0.20946890494531462 0.17931321173970052 0.7930693606534608 0.027617427606838794 0.13498630107628787 0.8145280389473843 0.05048565997632779 0.018079576971470633 0.11186151828091592 0.8700589047476135 0.3152887430603081 0.20184434540538876 0.48286691153430317 0.18888243406877045 0.6781813247716858 0.13293624115954378 0.11723212969505886 0.035175162076111134 0.84759270822883 0.22610144714922026 0.18792691018088895 0.5859716426698909 0.3023950122227018 0.5403783067165696 0.15722668106072857 0.12325841812775765 0.5557797369854915 0.32096184488675084 0.7273881943219255 0.03752404415867335 0.23508776151940114 </TABLE>
        </DEFINITION>
        <DEFINITION>
            <FOR>X2</FOR>
            <GIVEN>X3</GIVEN>
            <TABLE>0.04809917577204421 0.693589884894224 0.25831093933373184 0.6695912210066767 0.2643953972267218 0.06601338176660161 0.4000024300474445 0.43500491922436607 0.16499265072818947 </TABLE>
        </DEFINITION>
        <DEFINITION>
            <FOR>X3</FOR>
            <GIVEN>C1</GIVEN>
            <GIVEN>C2</GIVEN>
            <TABLE>0.01469625084123536 0.3049343755523349 0.6803693736064297 0.7175612683035759 0.20919028659709535 0.07324844509932887 0.40088555795045155 0.47133054407341246 0.12778389797613598 0.545589322915541 0.3424903782320554 0.1119202988524036 0.21601787462165967 0.2662004169069224 0.517781708471418 0.03742749512866553 0.7926601732836634 0.16991233158767102 0.33229078217945435 0.5247063526528113 0.14300286516773436 0.25258453293646443 0.6559233764153466 0.09149209064818901 0.03961473740214729 0.7720429036810572 0.18834235891679554 </TABLE>
        </DEFINITION>
        <DEFINITION>
            <FOR>X4</FOR>
            <GIVEN>X3</GIVEN>
            <TABLE>0.12477639037608318 0.5164462094346426 0.35877740018927434 0.6801776134753474 0.2224111928556617 0.09741119366899095 0.27617155830450524 0.36232016092204056 0.36150828077345415 </TABLE>
        </DEFINITION>
        <DEFINITION>
            <FOR>X5</FOR>
            <GIVEN>C2</GIVEN>
            <GIVEN>X2</GIVEN>
            <GIVEN>X3</GIVEN>
            <GIVEN>X4</GIVEN>
            <TABLE>0.09717887262588674 0.17702352843214145 0.7257975989419718 0.030632942652557213 0.850040167769497 0.11932688957794585 0.15132038778358842 0.5087793441887353 0.3399002680276764 0.41289294884442074 0.30132154273218353 0.2857855084233958 0.6448024026779389 0.09056041687748088 0.26463718044458023 0.3421869522029871 0.37787045478283615 0.27994259301417684 0.3695385662519957 0.35694328984832374 0.2735181438996806 0.14924938599970486 0.15290918361084732 0.6978414303894478 0.3057336739495339 0.581150439377042 0.11311588667342425 0.22633143794082392 0.1229005411609585 0.6507680208982176 0.7370026266402001 0.23922270372686447 0.023774669632935386 0.16863466710411004 0.03064592423943884 0.8007194086564511 0.1600136857354361 0.7574895318324941 0.08249678243206988 0.27865887713151066 0.09754587868650624 0.6237952441819832 0.17984162042144197 0.17505111990053873 0.6451072596780193 0.07645148294523256 0.7909517743759946 0.13259674267877286 0.21392698228945906 0.2794330842591142 0.5066399334514268 0.1291150625310862 0.8137138974590269 0.05717104000988671 0.22105584969576203 0.14051567514339516 0.6384284751608428 0.4565600917147789 0.49004697180857426 0.0533929364766468 0.82393574112846 0.1554544125864857 0.02060984628505425 0.08633434937067441 0.4454232596698608 0.4682423909594649 0.08713601126572491 0.29149537780330487 0.6213686109309703 0.08126754015380408 0.5962780810454213 0.3224543788007746 0.21522279701702182 0.29637113560348727 0.4884060673794909 0.39740691411748863 0.47609120695331253 0.12650187892919892 0.446535618401787 0.2010380223316865 0.35242635926652655 0.500704859791289 0.14240037758805327 0.3568947626206577 0.023313688319438412 0.663993339605335 0.31269297207522667 0.29947582542900986 0.5164582006042654 0.1840659739667248 8.597459730537482E-4 0.47331367354404846 0.5258265804828979 0.7616012156623686 0.21387708045708262 0.02452170388054876 0.015231784155726666 0.40124353199685786 0.5835246838474155 0.06626405796132186 0.6834474388577387 0.2502885031809394 0.2622961955614653 0.2592982478205687 0.478405556617966 0.44453751636308325 0.26614768774444325 0.2893147958924735 0.18260405099839094 0.21080157766595592 0.6065943713356532 0.5034143305775676 0.00971625780124741 0.4868694116211851 0.005201656578635263 0.37937215845563155 0.6154261849657332 0.19663307895353643 0.2908957007528957 0.5124712202935678 0.32266751216411876 0.46130745924941047 0.2160250285864707 0.24255896325714757 0.06361469948143675 0.6938263372614157 0.05904227547452517 0.13546799820611544 0.8054897263193594 0.45478316822016107 0.5397204066008685 0.005496425178970442 0.27433435921630134 0.1846415277572183 0.5410241130264805 0.7376946730826078 0.20544664183950495 0.056858685077887265 0.38405773327100207 0.3268763290936516 0.2890659376353463 0.12188943394821634 0.8338650153785705 0.044245550673213285 0.875412667189275 0.015922109536362618 0.10866522327436239 0.5754077762840253 0.2140721099199167 0.2105201137960579 0.2830502669157467 0.48136909119016946 0.23558064189408376 0.224501074942545 0.05451425078181172 0.7209846742756433 0.49308805325728866 0.2270905757441319 0.2798213709985795 0.131538247427022 0.34268420285809703 0.525777549714881 0.3968485641165089 0.24899102685675675 0.35416040902673435 0.07632926354830376 0.44488400947576845 0.4787867269759279 0.10266736176845535 0.4610629813434565 0.43626965688808816 0.2842496389779707 0.7129185758884979 0.0028317851335313694 0.07857215023530335 0.9092867159669673 0.012141133797729318 0.02942311548404487 0.6285924238378713 0.34198446067808386 0.10131824843582307 0.3694555408233696 0.5292262107408073 0.2177459710715689 0.40641506483324163 0.37583896409518947 0.2727673754197642 0.22287219619730098 0.5043604283829349 0.14873724289059156 0.8468877741957033 0.004374982913705218 0.6547153738776575 0.16008595791688113 0.18519866820546146 0.2763939321309527 0.09952477681690687 0.6240812910521405 0.10480353284170597 0.3331512413078626 0.5620452258504315 0.514086346310814 0.10158601985159771 0.3843276338375883 0.6605669019073458 0.1626846652019049 0.17674843289074937 0.07321596102631456 0.20558874201449387 0.7211952969591917 0.2558828754040359 0.43389163982607526 0.3102254847698888 0.5551354070743183 0.19958129484331202 0.24528329808236968 0.5405642069961929 0.1444669532484662 0.3149688397553409 0.21388281018867045 0.7465639199203102 0.03955326989101935 0.5354534607530499 0.2362295288293869 0.2283170104175632 0.4269595511210652 0.22877610370642937 0.3442643451725054 0.7148557585920186 0.16814749073684065 0.1169967506711408 0.194527150085111 0.7318064023713108 0.07366644754357825 0.6126695054761069 0.24770410816595556 0.13962638635793756 0.15215952336681965 0.21637860040888482 0.6314618762242955 0.47216805180609267 0.15583215432833544 0.37199979386557186 </TABLE>
        </DEFINITION>
        <DEFINITION>
            <FOR>C1</FOR>
            <GIVEN>C2</GIVEN>
            <TABLE>0.05337119980354215 0.7661208907941965 0.18050790940226133 0.4096435892797541 0.2884992185907633 0.3018571921294827 0.519512364624593 0.13034729951311072 0.35014033586229615 </TABLE>
        </DEFINITION>
        <DEFINITION>
            <FOR>C2</FOR>
            <TABLE>0.7495927116311716 0.06355422626550315 0.1868530621033254 </TABLE>
        </DEFINITION>
    </NETWORK>
</BIF>
