<?xml version="1.0" encoding="US-ASCII"?>
<BIF VERSION="0.3">
    <NETWORK>
        <NAME>NB04</NAME>
        <!--Variables-->
        <VARIABLE TYPE="nature">
            <NAME>X1</NAME>
            <OUTCOME>0</OUTCOME>
            <OUTCOME>1</OUTCOME>
        </VARIABLE>
        <VARIABLE TYPE="nature">
            <NAME>X2</NAME>
            <OUTCOME>0</OUTCOME>
            <OUTCOME>1</OUTCOME>
        </VARIABLE>
        <VARIABLE TYPE="nature">
            <NAME>X3</NAME>
            <OUTCOME>0</OUTCOME>
            <OUTCOME>1</OUTCOME>
        </VARIABLE>
        <VARIABLE TYPE="nature">
            <NAME>X4</NAME>
            <OUTCOME>0</OUTCOME>
            <OUTCOME>1</OUTCOME>
        </VARIABLE>
        <VARIABLE TYPE="nature">
            <NAME>X5</NAME>
            <OUTCOME>0</OUTCOME>
            <OUTCOME>1</OUTCOME>
        </VARIABLE>
        <VARIABLE TYPE="nature">
            <NAME>X6</NAME>
            <OUTCOME>0</OUTCOME>
            <OUTCOME>1</OUTCOME>
        </VARIABLE>
        <VARIABLE TYPE="nature">
            <NAME>X7</NAME>
            <OUTCOME>0</OUTCOME>
            <OUTCOME>1</OUTCOME>
        </VARIABLE>
        <VARIABLE TYPE="nature">
            <NAME>X8</NAME>
            <OUTCOME>0</OUTCOME>
            <OUTCOME>1</OUTCOME>
        </VARIABLE>
        <VARIABLE TYPE="nature">
            <NAME>X9</NAME>
            <OUTCOME>0</OUTCOME>
            <OUTCOME>1</OUTCOME>
        </VARIABLE>
        <VARIABLE TYPE="nature">
            <NAME>X10</NAME>
            <OUTCOME>0</OUTCOME>
            <OUTCOME>1</OUTCOME>
        </VARIABLE>
        <VARIABLE TYPE="nature">
            <NAME>C1</NAME>
            <OUTCOME>A</OUTCOME>
            <OUTCOME>B</OUTCOME>
        </VARIABLE>
        <VARIABLE TYPE="nature">
            <NAME>C2</NAME>
            <OUTCOME>A</OUTCOME>
            <OUTCOME>B</OUTCOME>
        </VARIABLE>
        <VARIABLE TYPE="nature">
            <NAME>C3</NAME>
            <OUTCOME>A</OUTCOME>
            <OUTCOME>B</OUTCOME>
        </VARIABLE>
        <VARIABLE TYPE="nature">
            <NAME>C4</NAME>
            <OUTCOME>A</OUTCOME>
            <OUTCOME>B</OUTCOME>
        </VARIABLE>
        <!--Conditional probability distributions-->
        <DEFINITION>
            <FOR>X1</FOR>
            <GIVEN>C1</GIVEN>
            <GIVEN>C2</GIVEN>
            <GIVEN>C3</GIVEN>
            <GIVEN>C4</GIVEN>
            <TABLE>0.7254882100636064 0.27451178993639364 0.2607685401177182 0.7392314598822818 0.7193711299162163 0.2806288700837837 0.3967060005713577 0.6032939994286424 0.5745038188590006 0.42549618114099935 0.9340818808882774 0.06591811911172259 0.9142182645118445 0.0857817354881555 0.5732863552066428 0.4267136447933571 0.9003985817433097 0.09960141825669035 0.9832811647568332 0.016718835243166752 0.7749933009509776 0.2250066990490224 0.7658630647298352 0.2341369352701648 0.45384138033668225 0.5461586196633178 0.6326289741722921 0.3673710258277078 0.9378549669697411 0.06214503303025892 0.2208449100609561 0.7791550899390439 </TABLE>
        </DEFINITION>
        <DEFINITION>
            <FOR>X2</FOR>
            <GIVEN>C1</GIVEN>
            <GIVEN>C2</GIVEN>
            <GIVEN>C3</GIVEN>
            <GIVEN>C4</GIVEN>
            <TABLE>0.24286868116545177 0.7571313188345483 0.7029402263782084 0.2970597736217917 0.611420630580168 0.38857936941983195 0.9150516640538069 0.08494833594619308 0.4195774431335902 0.5804225568664099 0.20973917077261195 0.790260829227388 0.0682840826474821 0.9317159173525179 0.2609449460902275 0.7390550539097724 0.46091212007123467 0.5390878799287654 0.8246647121247294 0.1753352878752707 0.49396340809709793 0.5060365919029021 0.7647201414686546 0.23527985853134548 0.6891184275479371 0.310881572452063 0.1396303157156179 0.8603696842843821 0.13026853528503238 0.8697314647149677 0.9940241228282785 0.005975877171721616 </TABLE>
        </DEFINITION>
        <DEFINITION>
            <FOR>X3</FOR>
            <GIVEN>C1</GIVEN>
            <GIVEN>C2</GIVEN>
            <GIVEN>C3</GIVEN>
            <GIVEN>C4</GIVEN>
            <TABLE>0.7069582265320109 0.29304177346798904 0.9371539545107817 0.06284604548921839 0.6230422656396818 0.37695773436031826 0.013216228485952476 0.9867837715140476 0.2795947628821715 0.7204052371178284 0.3044515709472081 0.6955484290527919 0.16870670005811306 0.8312932999418869 0.26144641758916 0.7385535824108401 0.2980084053721664 0.7019915946278336 0.04361843403991444 0.9563815659600856 0.051526470711318634 0.9484735292886813 0.8598510983313311 0.14014890166866895 0.8730762245494536 0.12692377545054642 0.14304032872114886 0.8569596712788511 0.3539548224054837 0.6460451775945163 0.7298528346195055 0.27014716538049455 </TABLE>
        </DEFINITION>
        <DEFINITION>
            <FOR>X4</FOR>
            <GIVEN>C1</GIVEN>
            <GIVEN>C2</GIVEN>
            <GIVEN>C3</GIVEN>
            <GIVEN>C4</GIVEN>
            <TABLE>0.6450467658285189 0.35495323417148106 0.23305580000058967 0.7669441999994103 0.46001106596056895 0.539988934039431 0.4702174512835636 0.5297825487164364 0.501049261864659 0.498950738135341 0.07150077429848928 0.9284992257015107 0.43447158091242155 0.5655284190875784 0.6831969651491001 0.3168030348508999 0.44713095998782343 0.5528690400121766 0.8584234131321646 0.1415765868678353 0.5989012430363229 0.4010987569636772 0.8083534534704246 0.19164654652957536 0.1743582592351626 0.8256417407648374 0.895139202561051 0.10486079743894909 0.12688433934187554 0.8731156606581245 0.5502053866657277 0.44979461333427223 </TABLE>
        </DEFINITION>
        <DEFINITION>
            <FOR>X5</FOR>
            <GIVEN>C1</GIVEN>
            <GIVEN>C2</GIVEN>
            <GIVEN>C3</GIVEN>
            <GIVEN>C4</GIVEN>
            <TABLE>0.012937489809666679 0.9870625101903334 0.645371048616264 0.354628951383736 0.3800022948406562 0.6199977051593438 0.9701237837236036 0.029876216276396358 0.9513501329539628 0.04864986704603722 0.4398351133902663 0.5601648866097336 0.25373502183596397 0.7462649781640361 0.9768929532078221 0.02310704679217788 0.8533116715346428 0.14668832846535723 0.9362135906633218 0.06378640933667822 0.6577136790931557 0.3422863209068444 0.635401590526515 0.36459840947348493 0.5386557056747032 0.4613442943252968 0.28877952816728214 0.7112204718327179 0.36732334123906923 0.6326766587609308 0.6558614667099043 0.3441385332900957 </TABLE>
        </DEFINITION>
        <DEFINITION>
            <FOR>X6</FOR>
            <GIVEN>C1</GIVEN>
            <GIVEN>C2</GIVEN>
            <GIVEN>C3</GIVEN>
            <GIVEN>C4</GIVEN>
            <TABLE>0.5343177468916996 0.46568225310830036 0.4210739527684854 0.5789260472315146 0.31876827743201824 0.6812317225679817 0.9578474377828163 0.04215256221718371 0.07684647475140241 0.9231535252485976 0.5521773853043925 0.44782261469560747 0.0032533192739900648 0.9967466807260099 0.936173897296499 0.06382610270350093 0.16112529908029452 0.8388747009197055 0.9149169076150814 0.08508309238491865 0.21340590479816018 0.7865940952018398 0.6874051457794392 0.3125948542205608 0.5585748751112758 0.44142512488872415 0.8195826948066683 0.18041730519333163 0.9298588275188564 0.07014117248114364 0.1475492271515071 0.8524507728484929 </TABLE>
        </DEFINITION>
        <DEFINITION>
            <FOR>X7</FOR>
            <GIVEN>C1</GIVEN>
            <GIVEN>C2</GIVEN>
            <GIVEN>C3</GIVEN>
            <GIVEN>C4</GIVEN>
            <TABLE>0.32118914459699943 0.6788108554030006 0.3032424636947008 0.6967575363052991 0.011515026457155053 0.9884849735428449 0.22077246113380972 0.7792275388661902 0.9831037696926398 0.016896230307360288 0.9236434425785963 0.0763565574214037 0.8009122933513021 0.1990877066486979 0.8709511670087174 0.12904883299128259 0.7471186813944211 0.2528813186055789 0.432772595606552 0.567227404393448 0.1497534727763587 0.8502465272236414 0.4928741369697854 0.5071258630302147 0.5264552123965491 0.47354478760345087 0.24583210390792148 0.7541678960920785 0.44471012928789994 0.5552898707121001 0.42678251334727896 0.573217486652721 </TABLE>
        </DEFINITION>
        <DEFINITION>
            <FOR>X8</FOR>
            <GIVEN>C1</GIVEN>
            <GIVEN>C2</GIVEN>
            <GIVEN>C3</GIVEN>
            <GIVEN>C4</GIVEN>
            <TABLE>0.005600567773468688 0.9943994322265314 0.842608876875727 0.157391123124273 0.15258136961987323 0.8474186303801268 0.8631774262194406 0.1368225737805594 0.9461791864563712 0.053820813543628804 0.2502100221440768 0.7497899778559233 0.04375901742607008 0.95624098257393 0.8313681320780664 0.1686318679219336 0.14850245686921595 0.8514975431307841 0.4105140006747584 0.5894859993252417 0.8604126799144577 0.13958732008554234 0.24293417763067832 0.7570658223693216 0.4994745158931179 0.500525484106882 0.39762184430021924 0.6023781556997808 0.5416213343928487 0.4583786656071513 0.7298117561416574 0.2701882438583426 </TABLE>
        </DEFINITION>
        <DEFINITION>
            <FOR>X9</FOR>
            <GIVEN>C1</GIVEN>
            <GIVEN>C2</GIVEN>
            <GIVEN>C3</GIVEN>
            <GIVEN>C4</GIVEN>
            <TABLE>0.5165844578893364 0.4834155421106637 0.32626533524456064 0.6737346647554394 0.13424682792141163 0.8657531720785884 0.9336841336653624 0.06631586633463754 0.06554705703769258 0.9344529429623074 0.5581420063717689 0.44185799362823114 0.6504634414121185 0.3495365585878815 0.06850348793698709 0.931496512063013 0.0041292262512922 0.9958707737487078 0.22007407113378558 0.7799259288662145 0.6584772224970122 0.34152277750298776 0.33776583210924965 0.6622341678907504 0.9312335366730742 0.06876646332692579 0.6985215481809076 0.3014784518190924 0.32728822411410435 0.6727117758858956 0.3086378303461927 0.6913621696538073 </TABLE>
        </DEFINITION>
        <DEFINITION>
            <FOR>X10</FOR>
            <GIVEN>C1</GIVEN>
            <GIVEN>C2</GIVEN>
            <GIVEN>C3</GIVEN>
            <GIVEN>C4</GIVEN>
            <TABLE>0.05220907986943276 0.9477909201305672 0.1349727338404125 0.8650272661595876 0.6099111445410259 0.39008885545897415 0.101915953285234 0.898084046714766 0.24148407756097084 0.7585159224390291 0.5814141656485119 0.4185858343514882 0.557969614826496 0.44203038517350396 0.5852072482996747 0.41479275170032526 0.024223076470610127 0.9757769235293898 0.0729367010312292 0.9270632989687707 0.5098977255815313 0.4901022744184687 0.7451829401655409 0.2548170598344592 0.12272747754260924 0.8772725224573908 0.7962687813557805 0.20373121864421948 0.15056125472504578 0.8494387452749542 0.2740289561988854 0.7259710438011147 </TABLE>
        </DEFINITION>
        <DEFINITION>
            <FOR>C1</FOR>
            <TABLE>0.3852984495467515 0.6147015504532485 </TABLE>
        </DEFINITION>
        <DEFINITION>
            <FOR>C2</FOR>
            <TABLE>0.08988476343526139 0.9101152365647387 </TABLE>
        </DEFINITION>
        <DEFINITION>
            <FOR>C3</FOR>
            <TABLE>0.2212907986942563 0.7787092013057437 </TABLE>
        </DEFINITION>
        <DEFINITION>
            <FOR>C4</FOR>
            <TABLE>0.5016777081261217 0.4983222918738784 </TABLE>
        </DEFINITION>
    </NETWORK>
</BIF>
