<?xml version="1.0" encoding="US-ASCII"?>
<BIF VERSION="0.3">
    <NETWORK>
        <NAME>NB05</NAME>
        <!--Variables-->
        <VARIABLE TYPE="nature">
            <NAME>X1</NAME>
            <OUTCOME>0</OUTCOME>
            <OUTCOME>1</OUTCOME>
        </VARIABLE>
        <VARIABLE TYPE="nature">
            <NAME>X2</NAME>
            <OUTCOME>0</OUTCOME>
            <OUTCOME>1</OUTCOME>
        </VARIABLE>
        <VARIABLE TYPE="nature">
            <NAME>X3</NAME>
            <OUTCOME>0</OUTCOME>
            <OUTCOME>1</OUTCOME>
        </VARIABLE>
        <VARIABLE TYPE="nature">
            <NAME>X4</NAME>
            <OUTCOME>0</OUTCOME>
            <OUTCOME>1</OUTCOME>
        </VARIABLE>
        <VARIABLE TYPE="nature">
            <NAME>X5</NAME>
            <OUTCOME>0</OUTCOME>
            <OUTCOME>1</OUTCOME>
        </VARIABLE>
        <VARIABLE TYPE="nature">
            <NAME>X6</NAME>
            <OUTCOME>0</OUTCOME>
            <OUTCOME>1</OUTCOME>
        </VARIABLE>
        <VARIABLE TYPE="nature">
            <NAME>X7</NAME>
            <OUTCOME>0</OUTCOME>
            <OUTCOME>1</OUTCOME>
        </VARIABLE>
        <VARIABLE TYPE="nature">
            <NAME>X8</NAME>
            <OUTCOME>0</OUTCOME>
            <OUTCOME>1</OUTCOME>
        </VARIABLE>
        <VARIABLE TYPE="nature">
            <NAME>X9</NAME>
            <OUTCOME>0</OUTCOME>
            <OUTCOME>1</OUTCOME>
        </VARIABLE>
        <VARIABLE TYPE="nature">
            <NAME>X10</NAME>
            <OUTCOME>0</OUTCOME>
            <OUTCOME>1</OUTCOME>
        </VARIABLE>
        <VARIABLE TYPE="nature">
            <NAME>C1</NAME>
            <OUTCOME>A</OUTCOME>
            <OUTCOME>B</OUTCOME>
            <OUTCOME>C</OUTCOME>
        </VARIABLE>
        <VARIABLE TYPE="nature">
            <NAME>C2</NAME>
            <OUTCOME>A</OUTCOME>
            <OUTCOME>B</OUTCOME>
            <OUTCOME>C</OUTCOME>
        </VARIABLE>
        <VARIABLE TYPE="nature">
            <NAME>C3</NAME>
            <OUTCOME>A</OUTCOME>
            <OUTCOME>B</OUTCOME>
            <OUTCOME>C</OUTCOME>
        </VARIABLE>
        <!--Conditional probability distributions-->
        <DEFINITION>
            <FOR>X1</FOR>
            <GIVEN>C1</GIVEN>
            <GIVEN>C2</GIVEN>
            <GIVEN>C3</GIVEN>
            <TABLE>0.20772852022237218 0.7922714797776279 0.3973357057027986 0.6026642942972014 0.10817462185560527 0.8918253781443948 0.396068308115516 0.6039316918844839 0.26252709578939154 0.7374729042106085 0.7985550650100576 0.2014449349899425 0.7348254926308108 0.26517450736918924 0.4311628683567643 0.5688371316432357 0.7545843989558659 0.245415601044134 0.8807502981383364 0.11924970186166349 0.20310260089607884 0.7968973991039212 0.08170036157687866 0.9182996384231213 0.1258365188489719 0.874163481151028 0.45687403122440867 0.5431259687755914 0.9615208710125767 0.03847912898742334 0.13834653651414863 0.8616534634858515 0.36644851280212226 0.6335514871978778 0.4536758809435349 0.5463241190564652 0.3027050405688254 0.6972949594311746 0.3939030850725939 0.606096914927406 0.14577754424706718 0.8542224557529329 0.06325714575890297 0.936742854241097 0.2711977679265972 0.7288022320734028 0.6793952375254518 0.32060476247454817 0.15957566749151988 0.8404243325084801 0.5887411956265988 0.41125880437340123 0.5018394528421856 0.4981605471578145 </TABLE>
        </DEFINITION>
        <DEFINITION>
            <FOR>X2</FOR>
            <GIVEN>C1</GIVEN>
            <GIVEN>C2</GIVEN>
            <GIVEN>C3</GIVEN>
            <TABLE>0.26753578124244937 0.7324642187575506 0.47582272973875994 0.5241772702612402 0.47835735189632456 0.5216426481036756 0.4735414385889397 0.5264585614110604 0.5790761976682879 0.4209238023317121 0.6317220817258569 0.3682779182741431 0.9567041637966954 0.043295836203304655 0.8893496436744507 0.11065035632554931 0.6914879676338267 0.30851203236617325 0.36081338307676036 0.6391866169232396 0.1966684460726754 0.8033315539273247 0.6080129743444128 0.39198702565558724 0.21879560427724234 0.7812043957227577 0.8836130082385804 0.11638699176141966 0.5089258663090341 0.4910741336909659 0.8219615472064298 0.17803845279357017 0.33241997379816424 0.6675800262018358 0.5249627346725113 0.47503726532748863 0.7339166889713769 0.2660833110286232 0.9049414846526582 0.09505851534734183 0.7646826954651009 0.23531730453489913 0.9308687617930608 0.06913123820693913 0.7536078722909233 0.24639212770907676 0.26027659515371643 0.7397234048462835 0.006184688031308259 0.9938153119686918 0.24256210070842565 0.7574378992915743 0.6169099181396199 0.38309008186038 </TABLE>
        </DEFINITION>
        <DEFINITION>
            <FOR>X3</FOR>
            <GIVEN>C1</GIVEN>
            <GIVEN>C2</GIVEN>
            <GIVEN>C3</GIVEN>
            <TABLE>0.39424653172393515 0.6057534682760648 0.7575128144403771 0.2424871855596229 0.8939556105518929 0.10604438944810719 0.2895962842374439 0.7104037157625562 0.316229091983319 0.683770908016681 0.20352081335156333 0.7964791866484366 0.7306067533335896 0.2693932466664105 0.31635226499584934 0.6836477350041507 0.7038150430419748 0.29618495695802516 0.9103944762373634 0.0896055237626366 0.2945969984731333 0.7054030015268666 0.39851977919269727 0.6014802208073027 0.23655859544539157 0.7634414045546084 0.9048600125834522 0.0951399874165478 0.9698495253803093 0.030150474619690774 0.8775962023868736 0.12240379761312636 0.7524820455679874 0.24751795443201266 0.10118829651628938 0.8988117034837106 0.6319184103130411 0.368081589686959 0.10603197027325434 0.8939680297267456 0.12713016184775794 0.8728698381522422 0.38519405445135607 0.614805945548644 0.24953685742930623 0.7504631425706938 0.46122624633271564 0.5387737536672844 0.09364711474230845 0.9063528852576915 0.18054202754545065 0.8194579724545493 0.9122011025279899 0.08779889747201008 </TABLE>
        </DEFINITION>
        <DEFINITION>
            <FOR>X4</FOR>
            <GIVEN>C1</GIVEN>
            <GIVEN>C2</GIVEN>
            <GIVEN>C3</GIVEN>
            <TABLE>0.03270525653851246 0.9672947434614876 0.11239312012811511 0.8876068798718849 0.18322705210534784 0.8167729478946523 0.5459864533377075 0.45401354666229254 0.951963298789185 0.04803670121081507 0.1411681921731533 0.8588318078268468 0.11408649818914608 0.8859135018108539 0.8936880908740898 0.10631190912591017 0.14531674897240282 0.8546832510275971 0.6559412255844791 0.344058774415521 0.04503542196925969 0.9549645780307404 0.7717546054009683 0.2282453945990317 0.46517765475024503 0.534822345249755 0.5244631167224674 0.4755368832775327 0.4390195762321216 0.5609804237678784 0.5384820951995368 0.46151790480046323 0.0034100231901859827 0.9965899768098141 0.6711557229931633 0.32884427700683677 0.8822735915752704 0.11772640842472963 0.40290183161425464 0.5970981683857454 0.3319332597353543 0.6680667402646457 0.3396569412052647 0.6603430587947353 0.2000896620277303 0.7999103379722697 0.24994271538498197 0.7500572846150181 0.22622005814877597 0.7737799418512241 0.23654640496213392 0.7634535950378661 0.4012115564075641 0.5987884435924359 </TABLE>
        </DEFINITION>
        <DEFINITION>
            <FOR>X5</FOR>
            <GIVEN>C1</GIVEN>
            <GIVEN>C2</GIVEN>
            <GIVEN>C3</GIVEN>
            <TABLE>0.34736198324774986 0.6526380167522502 0.40178837395056394 0.598211626049436 0.6887647560927418 0.3112352439072582 0.8517246722966596 0.14827532770334043 0.2317642792532224 0.7682357207467776 0.4549179485511866 0.5450820514488135 0.667814368106682 0.332185631893318 0.7671207545508882 0.23287924544911173 0.8327518493417062 0.16724815065829374 0.5156856569863499 0.48431434301365 0.747590613064966 0.252409386935034 0.029708580887288717 0.9702914191127113 0.9911697627596252 0.008830237240374779 0.9767111285050034 0.023288871494996602 0.5603387937412616 0.43966120625873845 0.12086527795410099 0.879134722045899 0.714045503618841 0.28595449638115905 0.5471895170728385 0.4528104829271616 0.619745263627099 0.38025473637290097 0.06969706260425232 0.9303029373957477 0.6436269967174074 0.3563730032825926 0.5052212356118083 0.49477876438819174 0.3949322441237432 0.6050677558762568 0.6279092161790158 0.3720907838209841 0.4102815214028635 0.5897184785971364 0.9089798833021215 0.0910201166978785 0.7365525562063165 0.2634474437936835 </TABLE>
        </DEFINITION>
        <DEFINITION>
            <FOR>X6</FOR>
            <GIVEN>C1</GIVEN>
            <GIVEN>C2</GIVEN>
            <GIVEN>C3</GIVEN>
            <TABLE>0.5815096609589258 0.4184903390410743 0.9258782656128142 0.0741217343871858 0.5156304360915315 0.48436956390846864 0.6312738394457678 0.3687261605542323 0.6868226170728667 0.3131773829271333 0.945290480779785 0.05470951922021503 0.41958870020428735 0.5804112997957126 0.2286880827964781 0.771311917203522 0.9904110949323656 0.009588905067634502 0.4477059642432878 0.5522940357567122 0.24479394347803637 0.7552060565219637 0.10176801348457265 0.8982319865154273 0.33488914428305777 0.6651108557169423 0.07664294229954821 0.9233570577004518 0.586247600159511 0.41375239984048906 0.9638232394583102 0.036176760541689855 0.9698825770052635 0.0301174229947366 0.26471060235445676 0.7352893976455432 0.00939540768499324 0.9906045923150067 0.9621914836426476 0.0378085163573524 0.906341260250227 0.09365873974977298 0.5059622347091467 0.49403776529085336 0.5286031187920245 0.47139688120797557 0.7008319137844173 0.29916808621558266 0.11139077067971176 0.8886092293202883 0.362370486440507 0.637629513559493 0.34112214172204386 0.6588778582779562 </TABLE>
        </DEFINITION>
        <DEFINITION>
            <FOR>X7</FOR>
            <GIVEN>C1</GIVEN>
            <GIVEN>C2</GIVEN>
            <GIVEN>C3</GIVEN>
            <TABLE>0.6893661606898769 0.3106338393101231 0.3356518679920909 0.6643481320079091 0.6299273631127209 0.37007263688727904 0.0830759583287243 0.9169240416712757 0.6474955142262695 0.3525044857737305 0.20917466312564942 0.7908253368743506 0.784653910986851 0.21534608901314903 0.8908661391896673 0.10913386081033277 0.4714496958168258 0.5285503041831742 0.5120129389961127 0.48798706100388745 0.4480028237483254 0.5519971762516747 0.7003748347527726 0.2996251652472273 0.4333753689131444 0.5666246310868556 0.7544485150219941 0.24555148497800589 0.18222827289205631 0.8177717271079438 0.45362096699692117 0.5463790330030788 0.16816021047416482 0.8318397895258353 0.14604028385854384 0.8539597161414562 0.6015656076842146 0.3984343923157853 0.9873992047803114 0.012600795219688637 0.8757073257892731 0.12429267421072693 0.6240227867737338 0.3759772132262662 0.7435678097610787 0.2564321902389213 0.7083376801483596 0.29166231985164043 0.8188362302804775 0.18116376971952253 0.6039823190705882 0.39601768092941186 0.8336808415784923 0.1663191584215078 </TABLE>
        </DEFINITION>
        <DEFINITION>
            <FOR>X8</FOR>
            <GIVEN>C1</GIVEN>
            <GIVEN>C2</GIVEN>
            <GIVEN>C3</GIVEN>
            <TABLE>0.7192128857826806 0.28078711421731933 0.09364678743013898 0.9063532125698611 0.6647206710131174 0.3352793289868826 0.11987446695928744 0.8801255330407126 0.6960803844546138 0.3039196155453862 0.22661122215848578 0.7733887778415143 0.482903399477496 0.5170966005225041 0.12315391965597128 0.8768460803440288 0.5391785844748179 0.460821415525182 0.9439138727953875 0.05608612720461249 0.719683117729777 0.280316882270223 0.48415630519769576 0.5158436948023043 0.8669506053979562 0.13304939460204376 0.3987353262070993 0.6012646737929007 0.35738400037716395 0.642615999622836 0.2313071996083805 0.7686928003916195 0.8105655406589246 0.18943445934107545 0.0022894295316360736 0.997710570468364 0.05271376815393336 0.9472862318460666 0.5466798064080437 0.45332019359195636 0.25743212687661104 0.7425678731233889 0.454486522031327 0.545513477968673 0.38382085768539037 0.6161791423146097 0.240525740641278 0.759474259358722 0.3492966300525804 0.6507033699474196 0.125111779732543 0.874888220267457 0.366589605824896 0.633410394175104 </TABLE>
        </DEFINITION>
        <DEFINITION>
            <FOR>X9</FOR>
            <GIVEN>C1</GIVEN>
            <GIVEN>C2</GIVEN>
            <GIVEN>C3</GIVEN>
            <TABLE>0.5479709586292023 0.45202904137079775 0.3023608112835498 0.6976391887164501 0.2842968323227986 0.7157031676772013 0.4340600693534431 0.5659399306465569 0.3592667876767551 0.6407332123232449 0.40859858731215615 0.591401412687844 0.4104620805420655 0.5895379194579345 0.6978370041183082 0.3021629958816919 0.7252822495963527 0.2747177504036473 0.8412178003260314 0.15878219967396856 0.7670919663844911 0.23290803361550888 0.6565292540394334 0.34347074596056665 0.20171436478215632 0.7982856352178437 0.9436510652851837 0.056348934714816334 0.170480349461569 0.829519650538431 0.6171719878795892 0.38282801212041084 0.18919974438292636 0.8108002556170736 0.6542052938178222 0.3457947061821777 0.02575348819361922 0.9742465118063808 0.9465334195277181 0.05346658047228195 0.7639502430839272 0.2360497569160728 0.440577045394906 0.559422954605094 0.37340573485348383 0.6265942651465162 0.7133388397965871 0.28666116020341303 0.6223574041150881 0.37764259588491184 0.8121857568941325 0.18781424310586742 0.24676163639397364 0.7532383636060264 </TABLE>
        </DEFINITION>
        <DEFINITION>
            <FOR>X10</FOR>
            <GIVEN>C1</GIVEN>
            <GIVEN>C2</GIVEN>
            <GIVEN>C3</GIVEN>
            <TABLE>0.015589450357155294 0.9844105496428448 0.44817010247689315 0.5518298975231068 0.8652051451761981 0.13479485482380196 0.38427255270314803 0.615727447296852 0.31963116380870465 0.6803688361912953 0.7694324515419919 0.2305675484580082 0.473237822632584 0.526762177367416 0.095677612077502 0.904322387922498 0.7052544963846857 0.29474550361531426 0.5032581524931058 0.4967418475068942 0.6102292349433861 0.3897707650566139 0.4599583807584373 0.5400416192415627 0.41244600684263366 0.5875539931573663 0.019566476479872183 0.9804335235201278 0.21367302406961622 0.7863269759303838 0.7252856499575987 0.27471435004240136 0.07454339698157658 0.9254566030184234 0.9834455753937322 0.016554424606267746 0.16651296951318187 0.8334870304868182 0.3690664822645352 0.6309335177354648 0.5182577685171837 0.4817422314828162 0.9983110299511442 0.001688970048855847 0.6508805404595351 0.34911945954046486 0.09960777424865948 0.9003922257513406 0.490366666361125 0.509633333638875 0.10804528075891184 0.8919547192410882 0.6734256178513539 0.32657438214864604 </TABLE>
        </DEFINITION>
        <DEFINITION>
            <FOR>C1</FOR>
            <TABLE>0.05159474311670791 0.45999497472870793 0.4884102821545841 </TABLE>
        </DEFINITION>
        <DEFINITION>
            <FOR>C2</FOR>
            <TABLE>0.13299135545884422 0.07039826195642847 0.7966103825847273 </TABLE>
        </DEFINITION>
        <DEFINITION>
            <FOR>C3</FOR>
            <TABLE>0.4254488947573663 0.3290528643404921 0.24549824090214167 </TABLE>
        </DEFINITION>
    </NETWORK>
</BIF>
