<?xml version="1.0" encoding="US-ASCII"?>
<BIF VERSION="0.3">
    <NETWORK>
        <NAME>TA02</NAME>
        <!--Variables-->
        <VARIABLE TYPE="nature">
            <NAME>X1</NAME>
            <OUTCOME>0</OUTCOME>
            <OUTCOME>1</OUTCOME>
        </VARIABLE>
        <VARIABLE TYPE="nature">
            <NAME>X2</NAME>
            <OUTCOME>0</OUTCOME>
            <OUTCOME>1</OUTCOME>
        </VARIABLE>
        <VARIABLE TYPE="nature">
            <NAME>X3</NAME>
            <OUTCOME>0</OUTCOME>
            <OUTCOME>1</OUTCOME>
        </VARIABLE>
        <VARIABLE TYPE="nature">
            <NAME>X4</NAME>
            <OUTCOME>0</OUTCOME>
            <OUTCOME>1</OUTCOME>
        </VARIABLE>
        <VARIABLE TYPE="nature">
            <NAME>X5</NAME>
            <OUTCOME>0</OUTCOME>
            <OUTCOME>1</OUTCOME>
        </VARIABLE>
        <VARIABLE TYPE="nature">
            <NAME>X6</NAME>
            <OUTCOME>0</OUTCOME>
            <OUTCOME>1</OUTCOME>
        </VARIABLE>
        <VARIABLE TYPE="nature">
            <NAME>X7</NAME>
            <OUTCOME>0</OUTCOME>
            <OUTCOME>1</OUTCOME>
        </VARIABLE>
        <VARIABLE TYPE="nature">
            <NAME>X8</NAME>
            <OUTCOME>0</OUTCOME>
            <OUTCOME>1</OUTCOME>
        </VARIABLE>
        <VARIABLE TYPE="nature">
            <NAME>C1</NAME>
            <OUTCOME>A</OUTCOME>
            <OUTCOME>B</OUTCOME>
        </VARIABLE>
        <VARIABLE TYPE="nature">
            <NAME>C2</NAME>
            <OUTCOME>A</OUTCOME>
            <OUTCOME>B</OUTCOME>
        </VARIABLE>
        <VARIABLE TYPE="nature">
            <NAME>C3</NAME>
            <OUTCOME>A</OUTCOME>
            <OUTCOME>B</OUTCOME>
        </VARIABLE>
        <VARIABLE TYPE="nature">
            <NAME>C4</NAME>
            <OUTCOME>A</OUTCOME>
            <OUTCOME>B</OUTCOME>
        </VARIABLE>
        <!--Conditional probability distributions-->
        <DEFINITION>
            <FOR>X1</FOR>
            <GIVEN>C2</GIVEN>
            <GIVEN>X2</GIVEN>
            <TABLE>0.6070571606464404 0.3929428393535596 0.9050855770519866 0.09491442294801351 0.6993220845044806 0.3006779154955195 0.8075684543293434 0.19243154567065657 </TABLE>
        </DEFINITION>
        <DEFINITION>
            <FOR>X2</FOR>
            <GIVEN>C1</GIVEN>
            <GIVEN>C2</GIVEN>
            <TABLE>0.42234414349306326 0.5776558565069367 0.3195753639038266 0.6804246360961733 0.8376634357743534 0.16233656422564652 0.48191633249843013 0.5180836675015699 </TABLE>
        </DEFINITION>
        <DEFINITION>
            <FOR>X3</FOR>
            <GIVEN>C1</GIVEN>
            <GIVEN>C2</GIVEN>
            <GIVEN>X2</GIVEN>
            <TABLE>0.9295115298916924 0.07048847010830764 0.9992966876557344 7.03312344265586E-4 0.5941681606140965 0.40583183938590345 0.8575957655042002 0.1424042344957997 0.30578948633327885 0.6942105136667212 0.2538265796736914 0.7461734203263086 0.37027046449241247 0.6297295355075875 0.5488396956258833 0.4511603043741167 </TABLE>
        </DEFINITION>
        <DEFINITION>
            <FOR>X4</FOR>
            <GIVEN>C3</GIVEN>
            <GIVEN>X2</GIVEN>
            <TABLE>0.8109437286924103 0.18905627130758976 0.37352325911329176 0.6264767408867082 0.0631050270045644 0.9368949729954356 0.7926267101676069 0.20737328983239312 </TABLE>
        </DEFINITION>
        <DEFINITION>
            <FOR>X5</FOR>
            <GIVEN>C3</GIVEN>
            <GIVEN>X4</GIVEN>
            <TABLE>0.5627970765754519 0.4372029234245481 0.3964133450315426 0.6035866549684574 0.20849559308506405 0.791504406914936 0.22812926230221847 0.7718707376977816 </TABLE>
        </DEFINITION>
        <DEFINITION>
            <FOR>X6</FOR>
            <GIVEN>C4</GIVEN>
            <GIVEN>X5</GIVEN>
            <TABLE>0.3701483308939972 0.6298516691060029 0.8547370973394856 0.1452629026605144 0.6340342908003949 0.3659657091996051 0.7843269064587964 0.2156730935412036 </TABLE>
        </DEFINITION>
        <DEFINITION>
            <FOR>X7</FOR>
            <GIVEN>C4</GIVEN>
            <GIVEN>X5</GIVEN>
            <TABLE>0.9104486160306856 0.08955138396931442 0.0747423510172376 0.9252576489827624 0.9854966143149216 0.014503385685078403 0.22403426608588414 0.7759657339141158 </TABLE>
        </DEFINITION>
        <DEFINITION>
            <FOR>X8</FOR>
            <GIVEN>C1</GIVEN>
            <GIVEN>C2</GIVEN>
            <GIVEN>C3</GIVEN>
            <GIVEN>C4</GIVEN>
            <GIVEN>X7</GIVEN>
            <TABLE>0.4816166321181462 0.5183833678818538 0.4251631875880922 0.5748368124119079 0.43037659973222575 0.5696234002677742 0.40926248198387477 0.5907375180161253 0.7407506347661967 0.2592493652338033 0.6049068550707453 0.39509314492925474 0.4218330899074905 0.5781669100925094 0.6059397887504824 0.3940602112495176 0.1355083527018488 0.8644916472981511 0.6841810583059912 0.31581894169400876 0.9492282001230056 0.05077179987699445 0.8817893111741445 0.11821068882585556 0.7466699135860159 0.2533300864139842 0.41560653926935276 0.5843934607306472 0.36628275119119286 0.6337172488088072 0.5223210862563574 0.4776789137436425 0.7334694749550557 0.26653052504494446 0.5045185164359385 0.4954814835640615 0.7118303938819723 0.28816960611802767 0.31230507734631324 0.6876949226536867 0.08738448261689011 0.91261551738311 0.8370874210001802 0.16291257899981976 0.6186963958998507 0.38130360410014924 0.057343963421293984 0.942656036578706 0.6528462262461371 0.34715377375386297 0.2123807159528424 0.7876192840471576 0.3743375839700395 0.6256624160299605 0.9638032621562457 0.036196737843754344 0.6442536345478044 0.3557463654521956 0.09194336653757992 0.90805663346242 0.5127428414900561 0.48725715850994383 0.1719441262088801 0.8280558737911199 </TABLE>
        </DEFINITION>
        <DEFINITION>
            <FOR>C1</FOR>
            <TABLE>0.514594559531907 0.48540544046809303 </TABLE>
        </DEFINITION>
        <DEFINITION>
            <FOR>C2</FOR>
            <GIVEN>C1</GIVEN>
            <TABLE>0.01591518292083753 0.9840848170791625 0.34906852513115305 0.650931474868847 </TABLE>
        </DEFINITION>
        <DEFINITION>
            <FOR>C3</FOR>
            <GIVEN>C4</GIVEN>
            <TABLE>0.34087395203790766 0.6591260479620924 0.8456727823836767 0.1543272176163233 </TABLE>
        </DEFINITION>
        <DEFINITION>
            <FOR>C4</FOR>
            <GIVEN>C2</GIVEN>
            <TABLE>0.771621669941678 0.22837833005832192 0.2872217630203585 0.7127782369796415 </TABLE>
        </DEFINITION>
    </NETWORK>
</BIF>
