<?xml version="1.0" encoding="US-ASCII"?>
<BIF VERSION="0.3">
    <NETWORK>
        <NAME>TA04</NAME>
        <!--Variables-->
        <VARIABLE TYPE="nature">
            <NAME>X1</NAME>
            <OUTCOME>0</OUTCOME>
            <OUTCOME>1</OUTCOME>
        </VARIABLE>
        <VARIABLE TYPE="nature">
            <NAME>X2</NAME>
            <OUTCOME>0</OUTCOME>
            <OUTCOME>1</OUTCOME>
        </VARIABLE>
        <VARIABLE TYPE="nature">
            <NAME>X3</NAME>
            <OUTCOME>0</OUTCOME>
            <OUTCOME>1</OUTCOME>
        </VARIABLE>
        <VARIABLE TYPE="nature">
            <NAME>X4</NAME>
            <OUTCOME>0</OUTCOME>
            <OUTCOME>1</OUTCOME>
        </VARIABLE>
        <VARIABLE TYPE="nature">
            <NAME>X5</NAME>
            <OUTCOME>0</OUTCOME>
            <OUTCOME>1</OUTCOME>
        </VARIABLE>
        <VARIABLE TYPE="nature">
            <NAME>X6</NAME>
            <OUTCOME>0</OUTCOME>
            <OUTCOME>1</OUTCOME>
        </VARIABLE>
        <VARIABLE TYPE="nature">
            <NAME>X7</NAME>
            <OUTCOME>0</OUTCOME>
            <OUTCOME>1</OUTCOME>
        </VARIABLE>
        <VARIABLE TYPE="nature">
            <NAME>X8</NAME>
            <OUTCOME>0</OUTCOME>
            <OUTCOME>1</OUTCOME>
        </VARIABLE>
        <VARIABLE TYPE="nature">
            <NAME>X9</NAME>
            <OUTCOME>0</OUTCOME>
            <OUTCOME>1</OUTCOME>
        </VARIABLE>
        <VARIABLE TYPE="nature">
            <NAME>X10</NAME>
            <OUTCOME>0</OUTCOME>
            <OUTCOME>1</OUTCOME>
        </VARIABLE>
        <VARIABLE TYPE="nature">
            <NAME>C1</NAME>
            <OUTCOME>A</OUTCOME>
            <OUTCOME>B</OUTCOME>
        </VARIABLE>
        <VARIABLE TYPE="nature">
            <NAME>C2</NAME>
            <OUTCOME>A</OUTCOME>
            <OUTCOME>B</OUTCOME>
        </VARIABLE>
        <VARIABLE TYPE="nature">
            <NAME>C3</NAME>
            <OUTCOME>A</OUTCOME>
            <OUTCOME>B</OUTCOME>
        </VARIABLE>
        <VARIABLE TYPE="nature">
            <NAME>C4</NAME>
            <OUTCOME>A</OUTCOME>
            <OUTCOME>B</OUTCOME>
        </VARIABLE>
        <!--Conditional probability distributions-->
        <DEFINITION>
            <FOR>X1</FOR>
            <GIVEN>C2</GIVEN>
            <GIVEN>C3</GIVEN>
            <GIVEN>C4</GIVEN>
            <TABLE>0.5565028269916944 0.4434971730083056 0.9783252661033622 0.021674733896637835 0.9954990884883578 0.004500911511642189 0.0629325404769265 0.9370674595230735 0.42204881157861956 0.5779511884213804 0.15986350003931674 0.8401364999606833 0.7616159349377343 0.23838406506226575 0.6387201362005983 0.3612798637994018 </TABLE>
        </DEFINITION>
        <DEFINITION>
            <FOR>X2</FOR>
            <GIVEN>C2</GIVEN>
            <GIVEN>C3</GIVEN>
            <GIVEN>C4</GIVEN>
            <GIVEN>X1</GIVEN>
            <TABLE>0.31202284430539834 0.6879771556946017 0.6377543213192263 0.36224567868077373 0.9026063871189298 0.09739361288107012 0.9748335384624126 0.02516646153758734 0.13009571733839093 0.8699042826616091 0.7294311722846515 0.2705688277153486 0.06033231113042505 0.939667688869575 0.8541883409913358 0.14581165900866427 0.2349053138030976 0.7650946861969025 0.5451670818236928 0.4548329181763073 0.42635367969374016 0.5736463203062598 0.7872996079931663 0.21270039200683363 0.5550710507021336 0.44492894929786636 0.685136957649031 0.314863042350969 0.2660627071189766 0.7339372928810234 0.10693498104134257 0.8930650189586575 </TABLE>
        </DEFINITION>
        <DEFINITION>
            <FOR>X3</FOR>
            <GIVEN>C2</GIVEN>
            <GIVEN>C3</GIVEN>
            <GIVEN>C4</GIVEN>
            <GIVEN>X1</GIVEN>
            <TABLE>0.8564041593300682 0.1435958406699318 0.26718095745631026 0.7328190425436898 0.07350323288352738 0.9264967671164727 0.38837581304696117 0.6116241869530389 0.9990153539287416 9.846460712583799E-4 0.49484767870386 0.50515232129614 0.9139484737540492 0.08605152624595087 0.5907104299826333 0.4092895700173667 0.523890141587742 0.47610985841225795 0.2700728734425159 0.729927126557484 0.18510403761855804 0.8148959623814419 0.14515362688255132 0.8548463731174487 0.15335703844195736 0.8466429615580426 0.3893957758918516 0.6106042241081484 0.27948612813617985 0.7205138718638201 0.2794704158624899 0.7205295841375101 </TABLE>
        </DEFINITION>
        <DEFINITION>
            <FOR>X4</FOR>
            <GIVEN>C2</GIVEN>
            <GIVEN>C3</GIVEN>
            <GIVEN>C4</GIVEN>
            <GIVEN>X3</GIVEN>
            <TABLE>0.3964640644518424 0.6035359355481577 0.007893458814206552 0.9921065411857934 0.8416977005743811 0.15830229942561888 0.28054919938116946 0.7194508006188306 0.18249311744607255 0.8175068825539274 0.1061024437356942 0.8938975562643058 0.9441070292102786 0.05589297078972144 0.8119073621989333 0.18809263780106672 0.15254962147928058 0.8474503785207195 0.5098978038110152 0.4901021961889847 0.6860272479460471 0.3139727520539529 0.4942681479675161 0.5057318520324839 0.08514149419392786 0.9148585058060722 0.8081205783327625 0.19187942166723743 0.1186146455555841 0.881385354444416 0.5443300811849007 0.45566991881509944 </TABLE>
        </DEFINITION>
        <DEFINITION>
            <FOR>X5</FOR>
            <GIVEN>C2</GIVEN>
            <GIVEN>C3</GIVEN>
            <GIVEN>C4</GIVEN>
            <GIVEN>X3</GIVEN>
            <TABLE>0.2179257010854322 0.7820742989145678 0.05117513463085109 0.9488248653691489 0.1401264609208673 0.8598735390791327 0.8837747061834148 0.11622529381658514 0.960868290855799 0.03913170914420111 0.920705328399583 0.07929467160041702 0.7393781174746747 0.2606218825253252 0.13545439654174687 0.8645456034582532 0.5549449793520129 0.445055020647987 0.2099081680799446 0.7900918319200554 0.5556349265629541 0.444365073437046 0.8003284567121394 0.1996715432878607 0.1911203405057534 0.8088796594942466 0.5763730875272028 0.42362691247279716 0.7331364524256668 0.26686354757433317 0.4456029470965609 0.5543970529034391 </TABLE>
        </DEFINITION>
        <DEFINITION>
            <FOR>X6</FOR>
            <GIVEN>C2</GIVEN>
            <GIVEN>C3</GIVEN>
            <GIVEN>C4</GIVEN>
            <GIVEN>X5</GIVEN>
            <TABLE>0.4287253087308603 0.5712746912691398 0.8753315134825168 0.12466848651748322 0.5278821858971402 0.47211781410285975 0.10192989751829827 0.8980701024817018 0.357073716422584 0.642926283577416 0.8048170677542542 0.1951829322457458 0.11409532048226444 0.8859046795177355 0.1587863708279162 0.8412136291720839 0.3112086473080588 0.6887913526919411 0.17937706285335225 0.8206229371466478 0.14669513522745858 0.8533048647725414 0.5117359439086504 0.48826405609134965 0.5798570730766848 0.4201429269233152 0.17581172579797313 0.8241882742020269 0.8013207410243731 0.19867925897562683 0.8395188191899863 0.16048118081001372 </TABLE>
        </DEFINITION>
        <DEFINITION>
            <FOR>X7</FOR>
            <GIVEN>C2</GIVEN>
            <GIVEN>C3</GIVEN>
            <GIVEN>C4</GIVEN>
            <GIVEN>X5</GIVEN>
            <TABLE>0.3023068756010083 0.6976931243989917 0.18909524121057383 0.810904758789426 0.5403386645838428 0.4596613354161571 0.9471917963466132 0.052808203653386836 0.13388709619763461 0.8661129038023653 0.7328083955074499 0.26719160449255014 0.48056254268224574 0.5194374573177543 0.9503308623776251 0.04966913762237489 0.42040810671524226 0.5795918932847578 0.26686129849776974 0.7331387015022304 0.21539180083068996 0.7846081991693101 0.05526667252812188 0.9447333274718782 0.3391345396386128 0.6608654603613872 0.024074801511021236 0.9759251984889787 0.672021604985679 0.327978395014321 0.5983518395946597 0.40164816040534035 </TABLE>
        </DEFINITION>
        <DEFINITION>
            <FOR>X8</FOR>
            <GIVEN>C2</GIVEN>
            <GIVEN>C3</GIVEN>
            <GIVEN>C4</GIVEN>
            <GIVEN>X7</GIVEN>
            <TABLE>0.451739863033269 0.548260136966731 0.3599703381150658 0.6400296618849343 0.7674174751126511 0.23258252488734887 0.593841659384286 0.406158340615714 0.5583889815321148 0.44161101846788514 0.9341366901561476 0.06586330984385239 0.2947553862701036 0.7052446137298963 0.5648340578753246 0.4351659421246754 0.744338429097226 0.2556615709027741 0.9471528033702419 0.05284719662975821 0.5812400924475623 0.4187599075524378 0.9543160907053555 0.0456839092946445 0.09335322559215135 0.9066467744078487 0.513802075529205 0.486197924470795 0.1971749595422267 0.8028250404577733 0.18372228958175005 0.8162777104182499 </TABLE>
        </DEFINITION>
        <DEFINITION>
            <FOR>X9</FOR>
            <GIVEN>C2</GIVEN>
            <GIVEN>C3</GIVEN>
            <GIVEN>C4</GIVEN>
            <GIVEN>X7</GIVEN>
            <TABLE>0.9910985375202439 0.008901462479756149 0.19884930628840541 0.8011506937115946 0.5879160279747719 0.4120839720252282 0.8983826007256114 0.10161739927438862 0.5483519010427843 0.45164809895721564 0.3817594288950396 0.6182405711049604 0.13823849142105865 0.8617615085789413 0.6196491648787533 0.38035083512124673 0.3065282654930785 0.6934717345069215 0.48340757467097356 0.5165924253290265 0.8181311086051605 0.18186889139483958 0.9503584974213153 0.049641502578684736 0.25757681916569686 0.7424231808343031 0.2937090302936231 0.706290969706377 0.5755034906965308 0.42449650930346927 0.8973740112267903 0.10262598877320978 </TABLE>
        </DEFINITION>
        <DEFINITION>
            <FOR>X10</FOR>
            <GIVEN>C2</GIVEN>
            <GIVEN>C3</GIVEN>
            <GIVEN>C4</GIVEN>
            <GIVEN>X9</GIVEN>
            <TABLE>0.7140604607481453 0.2859395392518547 0.5715157340663108 0.42848426593368927 0.7440907334130042 0.2559092665869958 0.1276736884768849 0.8723263115231151 0.23091547060836198 0.769084529391638 0.10130094815648134 0.8986990518435187 0.5576218765636327 0.4423781234363673 0.5910060715838065 0.4089939284161936 0.842105033454482 0.157894966545518 0.3735510586569656 0.6264489413430344 0.9202220829466039 0.07977791705339615 0.7220227103965672 0.2779772896034328 0.9881663190033914 0.011833680996608607 0.07437988281477323 0.9256201171852267 0.07641057644754208 0.9235894235524579 0.9185981947449089 0.08140180525509108 </TABLE>
        </DEFINITION>
        <DEFINITION>
            <FOR>C1</FOR>
            <TABLE>0.19560962745245453 0.8043903725475454 </TABLE>
        </DEFINITION>
        <DEFINITION>
            <FOR>C2</FOR>
            <GIVEN>C3</GIVEN>
            <TABLE>0.027035273717934374 0.9729647262820657 0.19089091587841467 0.8091090841215853 </TABLE>
        </DEFINITION>
        <DEFINITION>
            <FOR>C3</FOR>
            <GIVEN>C1</GIVEN>
            <TABLE>0.1250164938690582 0.8749835061309418 0.49436760069209507 0.5056323993079049 </TABLE>
        </DEFINITION>
        <DEFINITION>
            <FOR>C4</FOR>
            <GIVEN>C3</GIVEN>
            <TABLE>0.9878859984714886 0.012114001528511366 0.6619120422332442 0.33808795776675576 </TABLE>
        </DEFINITION>
    </NETWORK>
</BIF>
