<?xml version="1.0" encoding="US-ASCII"?>
<BIF VERSION="0.3">
    <NETWORK>
        <NAME>TA05</NAME>
        <!--Variables-->
        <VARIABLE TYPE="nature">
            <NAME>X1</NAME>
            <OUTCOME>0</OUTCOME>
            <OUTCOME>1</OUTCOME>
            <OUTCOME>2</OUTCOME>
            <OUTCOME>3</OUTCOME>
        </VARIABLE>
        <VARIABLE TYPE="nature">
            <NAME>X2</NAME>
            <OUTCOME>0</OUTCOME>
            <OUTCOME>1</OUTCOME>
            <OUTCOME>2</OUTCOME>
            <OUTCOME>3</OUTCOME>
        </VARIABLE>
        <VARIABLE TYPE="nature">
            <NAME>X3</NAME>
            <OUTCOME>0</OUTCOME>
            <OUTCOME>1</OUTCOME>
            <OUTCOME>2</OUTCOME>
            <OUTCOME>3</OUTCOME>
        </VARIABLE>
        <VARIABLE TYPE="nature">
            <NAME>X4</NAME>
            <OUTCOME>0</OUTCOME>
            <OUTCOME>1</OUTCOME>
            <OUTCOME>2</OUTCOME>
            <OUTCOME>3</OUTCOME>
        </VARIABLE>
        <VARIABLE TYPE="nature">
            <NAME>X5</NAME>
            <OUTCOME>0</OUTCOME>
            <OUTCOME>1</OUTCOME>
            <OUTCOME>2</OUTCOME>
            <OUTCOME>3</OUTCOME>
        </VARIABLE>
        <VARIABLE TYPE="nature">
            <NAME>C1</NAME>
            <OUTCOME>A</OUTCOME>
            <OUTCOME>B</OUTCOME>
            <OUTCOME>C</OUTCOME>
        </VARIABLE>
        <VARIABLE TYPE="nature">
            <NAME>C2</NAME>
            <OUTCOME>A</OUTCOME>
            <OUTCOME>B</OUTCOME>
            <OUTCOME>C</OUTCOME>
        </VARIABLE>
        <!--Conditional probability distributions-->
        <DEFINITION>
            <FOR>X1</FOR>
            <GIVEN>C1</GIVEN>
            <GIVEN>X2</GIVEN>
            <TABLE>0.23978518637943846 0.33083886109067806 0.07543817287757267 0.35393777965231077 0.04073886378189812 0.28864239019635424 0.01902332576155092 0.6515954202601967 0.28427257285188673 0.1243495009892308 0.26600301127380693 0.32537491488507553 0.44537810340173284 0.342135628943288 0.10905516883200657 0.10343109882297266 0.25234678944667244 0.07656048962514272 0.4140753341796054 0.25701738674857955 0.10810106115792786 0.19441652173700782 0.05933447293776533 0.638147944167299 0.5782052262714308 0.34180045838697826 0.032264947765781676 0.04772936757580925 0.20058318883427745 0.2839534974533783 0.010289955216298404 0.5051733584960459 0.43081701745831874 0.3739335580044929 0.13558350194181362 0.05966592259537486 0.7543164678972636 0.10063994419581955 0.044720231581558315 0.1003233563253585 0.3540254868348678 0.09122652032598437 0.3698501872786656 0.18489780556048224 0.5262591936379102 0.050514811082857575 0.28789559699776224 0.13533039828147012 </TABLE>
        </DEFINITION>
        <DEFINITION>
            <FOR>X2</FOR>
            <GIVEN>X3</GIVEN>
            <TABLE>0.4549684023793568 0.4107042822968441 0.055662859916355535 0.07866445540744356 0.1658866000650316 0.24808920249222438 0.49845547669997536 0.08756872074276867 0.2680710591830195 0.49589938866270306 0.20105513670774303 0.034974415446534506 0.11323330778168601 0.16497774436844592 0.39614505228192215 0.32564389556794604 </TABLE>
        </DEFINITION>
        <DEFINITION>
            <FOR>X3</FOR>
            <GIVEN>C1</GIVEN>
            <GIVEN>C2</GIVEN>
            <TABLE>0.07066973070863655 0.4451592588566517 0.26418559266369934 0.21998541777101246 0.22748986879088184 0.3084017426729491 0.1882316998700296 0.27587668866613946 0.37772153963859295 0.27649201827014286 0.12207098990340508 0.22371545218785896 0.08376103030121869 0.20497499015315643 0.17049254751180717 0.5407714320338177 0.2034243816411573 0.03446360327541776 0.09033133691451718 0.6717806781689077 0.3667944098952758 0.2973011602939494 0.23933017792419664 0.09657425188657826 0.11038134343754662 0.35144670311870646 0.28221284295629445 0.25595911048745246 0.7063793159199515 0.002616450794061036 0.2541173819947171 0.036886851291270464 0.025089510236159726 0.05971304413580256 0.912980862686504 0.0022165829415337554 </TABLE>
        </DEFINITION>
        <DEFINITION>
            <FOR>X4</FOR>
            <GIVEN>X3</GIVEN>
            <TABLE>0.2655475386965099 0.35547159177350035 0.3300050514100816 0.04897581811990823 0.05846260186127883 0.04071257576023635 0.695915231775655 0.20490959060282993 0.2410361475725893 0.17646768245421388 0.021078948644762903 0.561417221328434 0.3615043888405154 0.1090790620963122 0.04593617890158021 0.48348037016159223 </TABLE>
        </DEFINITION>
        <DEFINITION>
            <FOR>X5</FOR>
            <GIVEN>C2</GIVEN>
            <GIVEN>X4</GIVEN>
            <TABLE>0.012821103995255463 0.028568206310157173 0.8427935058271494 0.11581718386743806 0.011929747310381614 0.41252953636698964 0.14350262614131104 0.4320380901813177 0.22703729108495785 0.1440951769223914 0.1186145420119819 0.5102529899806688 0.5770425244654794 0.15768785802595947 0.11243665423451506 0.15283296327404605 0.01698043232666038 0.003759519941056867 0.40517370823092014 0.5740863395013626 0.005661911471880679 0.1464348383993861 0.004293289708663551 0.8436099604200696 0.10202707909467217 0.2526802718527696 0.4317021275963891 0.21359052145616925 0.6497233465866445 0.035701853550635515 0.16400487395218316 0.1505699259105369 0.0606317510669174 0.07384709112044333 0.8134764785960525 0.05204467921658681 0.5138556471073756 0.1337645898094058 0.23530349726940078 0.11707626581381797 0.7885162415505389 0.1385175326102104 0.023218253306753485 0.04974797253249723 0.1313401545333219 0.35847445483707735 0.14752663061433485 0.3626587600152659 </TABLE>
        </DEFINITION>
        <DEFINITION>
            <FOR>C1</FOR>
            <GIVEN>C2</GIVEN>
            <TABLE>0.10089606829288944 0.47051261810514017 0.4285913136019703 0.06946047185666718 0.37925026510385507 0.5512892630394778 0.773655474461339 0.14318797379124146 0.08315655174741961 </TABLE>
        </DEFINITION>
        <DEFINITION>
            <FOR>C2</FOR>
            <TABLE>0.19072176457961246 0.26139192885264456 0.5478863065677431 </TABLE>
        </DEFINITION>
    </NETWORK>
</BIF>
